{"learner":{"attributes":{"scikit_learn":"{\"_estimator_type\": \"classifier\"}"},"feature_names":[],"feature_types":[],"gradient_booster":{"model":{"cats":{"enc":[],"feature_segments":[],"sorted_idx":[]},"gbtree_model_param":{"num_parallel_tree":"1","num_trees":"300"},"iteration_indptr":[0,3,6,9,12,15,18,21,24,27,30,33,36,39,42,45,48,51,54,57,60,63,66,69,72,75,78,81,84,87,90,93,96,99,102,105,108,111,114,117,120,123,126,129,132,135,138,141,144,147,150,153,156,159,162,165,168,171,174,177,180,183,186,189,192,195,198,201,204,207,210,213,216,219,222,225,228,231,234,237,240,243,246,249,252,255,258,261,264,267,270,273,276,279,282,285,288,291,294,297,300],"tree_info":[0,1,2,0,1,2,0,1,2,0,1,2,0,1,2,0,1,2,0,1,2,0,1,2,0,1,2,0,1,2,0,1,2,0,1,2,0,1,2,0,1,2,0,1,2,0,1,2,0,1,2,0,1,2,0,1,2,0,1,2,0,1,2,0,1,2,0,1,2,0,1,2,0,1,2,0,1,2,0,1,2,0,1,2,0,1,2,0,1,2,0,1,2,0,1,2,0,1,2,0,1,2,0,1,2,0,1,2,0,1,2,0,1,2,0,1,2,0,1,2,0,1,2,0,1,2,0,1,2,0,1,2,0,1,2,0,1,2,0,1,2,0,1,2,0,1,2,0,1,2,0,1,2,0,1,2,0,1,2,0,1,2,0,1,2,0,1,2,0,1,2,0,1,2,0,1,2,0,1,2,0,1,2,0,1,2,0,1,2,0,1,2,0,1,2,0,1,2,0,1,2,0,1,2,0,1,2,0,1,2,0,1,2,0,1,2,0,1,2,0,1,2,0,1,2,0,1,2,0,1,2,0,1,2,0,1,2,0,1,2,0,1,2,0,1,2,0,1,2,0,1,2,0,1,2,0,1,2,0,1,2,0,1,2,0,1,2,0,1,2,0,1,2,0,1,2,0,1,2,0,1,2,0,1,2,0,1,2,0,1,2,0,1,2,0,1,2,0,1,2],"trees":[{"base_weights":[2.9229955E-8,-2.226183E-2,1.0395885E0,2.1906333E-1,-1.0489559E-1,-4.817658E-2,1.3479044E-1,1.3120517E-1,1.3479044E-1,-5.912652E-1,-5.1150344E-2,-4.205341E-1,2.622207E-1,-6.795878E-1,1.9633457E-1,-3.268938E-2,-6.82426E-2,1.0297779E-1,-5.9681815E-1,4.3367928E-1,-4.125718E-1,-7.283457E-2,-3.7186226E-1,-5.19075E-2,9.557612E-2,-7.582445E-2,9.512577E-1,-7.130089E-2,-1.1631358E-2,9.923066E-3,7.211931E-2,-5.7382055E-2,9.557612E-2,-6.142065E-2,2.3699772E-2,1.0369759E-2,-1.4405623E-2,1.0975001E-1,-1.2238404E-2],"categories":[],"categories_nodes":[],"categories_segments":[],"categories_sizes":[],"default_left":[0,0,0,0,0,0,0,0,0,0,0,0,0,0,0,0,0,0,0,0,0,0,0,0,0,0,0,0,0,0,0,0,0,0,0,0,0,0,0],"id":0,"left_children":[1,3,5,7,9,-1,-1,11,-1,13,15,17,19,21,23,25,-1,-1,27,29,31,-1,33,-1,-1,35,37,-1,-1,-1,-1,-1,-1,-1,-1,-1,-1,-1,-1],"loss_changes":[1.3402273E1,1.1329105E1,6.3441935E0,1.4198136E1,1.1027531E1,0E0,0E0,9.911084E0,0E0,3.0549822E0,4.4297533E0,7.3645616E0,1.2926821E1,2.991333E-1,3.218459E0,1.5870011E1,0E0,0E0,1.2666626E0,8.4235935E0,5.587085E0,0E0,1.2136991E0,0E0,0E0,4.394133E0,2.6003618E0,0E0,0E0,0E0,0E0,0E0,0E0,0E0,0E0,0E0,0E0,0E0,0E0],"parents":[2147483647,0,0,1,1,2,2,3,3,4,4,7,7,9,9,10,10,11,11,12,12,13,13,14,14,15,15,18,18,19,19,20,20,22,22,25,25,26,26],"right_children":[2,4,6,8,10,-1,-1,12,-1,14,16,18,20,22,24,26,-1,-1,28,30,32,-1,34,-1,-1,36,38,-1,-1,-1,-1,-1,-1,-1,-1,-1,-1,-1,-1],"split_conditions":[1.7026764E0,-8.740545E-1,-1.3131025E0,-8.8781804E-1,-7.079089E-1,-4.817658E-2,1.3479044E-1,-1.4840329E0,1.3479044E-1,1E0,1.5756227E0,-1.7404287E0,1.0799242E0,9.1007453E-1,-3.5589176E-1,1.5072504E0,-6.82426E-2,1.0297779E-1,1E0,-6.5309964E-2,-1.0490481E0,-7.283457E-2,-8.386625E-1,-5.19075E-2,9.557612E-2,-6.1228746E-1,1.1563462E0,-7.130089E-2,-1.1631358E-2,9.923066E-3,7.211931E-2,-5.7382055E-2,9.557612E-2,-6.142065E-2,2.3699772E-2,1.0369759E-2,-1.4405623E-2,1.0975001E-1,-1.2238404E-2],"split_indices":[4,4,3,4,4,0,0,3,0,12,3,3,3,0,3,3,0,0,12,3,4,0,4,0,0,3,1,0,0,0,0,0,0,0,0,0,0,0,0],"split_type":[0,0,0,0,0,0,0,0,0,0,0,0,0,0,0,0,0,0,0,0,0,0,0,0,0,0,0,0,0,0,0,0,0,0,0,0,0,0,0],"sum_hessian":[5.771027E2,5.6596173E2,1.1140979E1,1.4394145E2,4.220203E2,1.7825567E0,9.358422E0,1.3458302E2,9.358422E0,4.0998802E1,3.8102148E2,2.5401432E1,1.09181595E2,3.6988052E1,4.0107527E0,3.7121744E2,9.804062E0,2.228196E0,2.3173237E1,8.7345276E1,2.1836319E1,3.0749102E1,6.2389483E0,2.228196E0,1.7825567E0,3.5651132E2,1.4706093E1,1.8271206E1,4.902031E0,4.0998802E1,4.6346474E1,2.0053762E1,1.7825567E0,4.456392E0,1.7825567E0,9.804062E1,2.584707E2,1.2923535E1,1.7825567E0],"tree_param":{"num_deleted":"0","num_feature":"15","num_nodes":"39","size_leaf_vector":"1"}},{"base_weights":[6.703718E-8,2.4525587E-2,-7.307532E-2,-9.2549205E-2,1.9298062E-1,-1.8423808E-1,1.5816402E-1,3.2723993E-1,-6.793037E-2,-2.7518514E-1,1.8026213E-1,3.4462398E-1,-2.5803256E-1,6.0804885E-2,4.5006296E-1,-4.343915E-1,1.0481456E-1,9.4817474E-2,-3.0575645E-1,-1.5572063E-2,1.24149516E-1,8.428747E-1,1.1775177E-1,-7.086451E-2,7.762353E-2,3.1762385E-1,-7.108509E-2,1.2684709E-1,3.6867473E-1,-6.060151E-1,6.062403E-1,4.2692706E-1,-1.8184233E-1,-6.1818015E-2,-2.5896607E-2,3.8864043E-2,-3.11279E-2,-4.4523295E-2,9.6331894E-2,-1.9415366E-2,5.0850358E-2,8.339021E-2,-6.870883E-2,5.3291988E-2,-2.0373197E-2,1.1308899E-2,5.8430463E-2,-7.287588E-2,-9.239054E-3,-2.283242E-3,9.190169E-2,-6.049363E-2,6.1782837E-2,-6.0333032E-2,4.32964E-3],"categories":[],"categories_nodes":[],"categories_segments":[],"categories_sizes":[],"default_left":[0,0,0,0,0,0,0,0,0,0,0,0,0,0,0,0,0,0,0,0,0,0,0,0,0,0,0,0,0,0,0,0,0,0,0,0,0,0,0,0,0,0,0,0,0,0,0,0,0,0,0,0,0,0,0],"id":1,"left_children":[1,3,-1,5,7,9,11,13,15,17,19,21,23,25,27,29,31,-1,33,35,-1,37,39,-1,41,43,-1,-1,45,47,49,51,53,-1,-1,-1,-1,-1,-1,-1,-1,-1,-1,-1,-1,-1,-1,-1,-1,-1,-1,-1,-1,-1,-1],"loss_changes":[1.0614727E1,1.13192215E1,0E0,7.8162656E0,8.264192E0,8.287545E0,7.1702747E0,5.061884E0,5.1583815E0,7.7427807E0,1.045783E1,7.0725913E0,4.4116726E0,1.0179595E1,6.6122875E0,5.023306E0,5.2204456E0,0E0,2.6930466E0,5.307322E0,0E0,3.4834137E0,5.5536623E0,0E0,1.0641234E1,4.4161396E0,0E0,0E0,5.3396816E0,1.37504E0,8.455324E-1,5.598789E0,2.8892093E0,0E0,0E0,0E0,0E0,0E0,0E0,0E0,0E0,0E0,0E0,0E0,0E0,0E0,0E0,0E0,0E0,0E0,0E0,0E0,0E0,0E0,0E0],"parents":[2147483647,0,0,1,1,3,3,4,4,5,5,6,6,7,7,8,8,9,9,10,10,11,11,12,12,13,13,14,14,15,15,16,16,18,18,19,19,21,21,22,22,24,24,25,25,28,28,29,29,30,30,31,31,32,32],"right_children":[2,4,-1,6,8,10,12,14,16,18,20,22,24,26,28,30,32,-1,34,36,-1,38,40,-1,42,44,-1,-1,46,48,50,52,54,-1,-1,-1,-1,-1,-1,-1,-1,-1,-1,-1,-1,-1,-1,-1,-1,-1,-1,-1,-1,-1,-1],"split_conditions":[1.6427066E0,8.1922346E-1,-7.307532E-2,8.473708E-1,6.52598E-1,1.0457381E0,1.4165914E0,-1.1079859E0,9.4317985E-1,-1.6549634E0,1E0,-5.9519446E-1,-3.5589176E-1,-1.3643816E0,-1.0054276E0,1E0,1.3363199E0,9.4817474E-2,-1.3131025E0,-4.8063453E-2,1.24149516E-1,9.2896897E-1,8.8489896E-1,-7.086451E-2,4.132954E-1,1E0,-7.108509E-2,1.2684709E-1,-1.0427948E-1,4.3053225E-1,-1.2954878E0,-1.1807847E0,3.3103517E-1,-6.1818015E-2,-2.5896607E-2,3.8864043E-2,-3.11279E-2,-4.4523295E-2,9.6331894E-2,-1.9415366E-2,5.0850358E-2,8.339021E-2,-6.870883E-2,5.3291988E-2,-2.0373197E-2,1.1308899E-2,5.8430463E-2,-7.287588E-2,-9.239054E-3,-2.283242E-3,9.190169E-2,-6.049363E-2,6.1782837E-2,-6.0333032E-2,4.32964E-3],"split_indices":[4,2,0,4,3,3,4,3,3,3,8,3,3,3,3,6,3,0,3,1,0,4,0,0,3,5,0,0,4,4,1,4,0,0,0,0,0,0,0,0,0,0,0,0,0,0,0,0,0,0,0,0,0,0,0],"split_type":[0,0,0,0,0,0,0,0,0,0,0,0,0,0,0,0,0,0,0,0,0,0,0,0,0,0,0,0,0,0,0,0,0,0,0,0,0,0,0,0,0,0,0,0,0,0,0,0,0,0,0,0,0,0,0],"sum_hessian":[5.9027026E2,5.7203796E2,1.8232286E1,3.377531E2,2.3428488E2,2.4750328E2,9.024982E1,1.5451863E2,7.976625E1,1.9827611E2,4.9227173E1,6.244558E1,2.7804235E1,4.9227173E1,1.0529145E2,2.5069393E1,5.4696857E1,4.1022644E0,1.9417384E2,4.2390064E1,6.837107E0,1.8688093E1,4.3757484E1,1.1395179E1,1.6409058E1,3.7376186E1,1.1850986E1,8.204529E0,9.708692E1,2.1878742E1,3.19065E0,2.55252E1,2.9171658E1,2.3701971E1,1.7047188E2,1.777648E1,2.4613586E1,1.3674214E0,1.7320671E1,2.4613586E1,1.91439E1,8.204529E0,8.204529E0,2.6436815E1,1.0939371E1,4.512491E1,5.1962013E1,1.7320671E1,4.5580716E0,1.3674214E0,1.8232286E0,3.6464572E0,2.1878742E1,9.57195E0,1.9599707E1],"tree_param":{"num_deleted":"0","num_feature":"15","num_nodes":"55","size_leaf_vector":"1"}},{"base_weights":[-1.4718985E-7,2.3882873E-1,-4.55903E-2,1.4113592E-1,1.3678455E-1,-4.524061E-1,-8.861547E-3,2.4089114E-1,-6.525474E-2,-6.056265E-2,-6.9776125E-2,6.618721E-1,-3.7582476E-2,1.6718446E-1,1.2676167E-1,-4.427037E-1,1.19742386E-1,1.1057028E0,-5.9103813E-2,-5.9440744E-1,-8.824325E-3,-1.4267856E-1,3.8709253E-1,4.5441892E-2,-6.615273E-2,1.3658187E-1,-1.8005293E-2,-6.863837E-2,-4.848972E-2,5.600023E-2,-2.0107621E-1,1.2395739E-2,-6.587801E-2,1.6703274E-2,1.3809483E-1,2.7406514E-2,-4.1047685E-2,1.9433491E-3,1.392621E-1,-6.1632838E-2,5.9864315E-4],"categories":[],"categories_nodes":[],"categories_segments":[],"categories_sizes":[],"default_left":[0,0,0,0,0,0,0,0,0,0,0,0,0,0,0,0,0,0,0,0,0,0,0,0,0,0,0,0,0,0,0,0,0,0,0,0,0,0,0,0,0],"id":2,"left_children":[1,3,5,7,-1,9,11,13,-1,15,-1,17,19,21,-1,23,-1,25,-1,27,29,31,33,-1,-1,-1,-1,-1,35,37,39,-1,-1,-1,-1,-1,-1,-1,-1,-1,-1],"loss_changes":[6.09118E0,9.697464E0,7.0149984E0,6.7797523E0,0E0,3.69562E0,8.344575E0,5.4665895E0,0E0,8.253291E0,0E0,1.054472E1,6.641676E0,4.9043503E0,0E0,2.862963E0,0E0,4.7552204E0,0E0,9.895272E-1,4.9429607E0,4.247195E0,8.931513E0,0E0,0E0,0E0,0E0,0E0,5.8107203E-1,1.4475194E1,8.602225E0,0E0,0E0,0E0,0E0,0E0,0E0,0E0,0E0,0E0,0E0],"parents":[2147483647,0,0,1,1,2,2,3,3,5,5,6,6,7,7,9,9,11,11,12,12,13,13,15,15,17,17,19,19,20,20,21,21,22,22,28,28,29,29,30,30],"right_children":[2,4,6,8,-1,10,12,14,-1,16,-1,18,20,22,-1,24,-1,26,-1,28,30,32,34,-1,-1,-1,-1,-1,36,38,40,-1,-1,-1,-1,-1,-1,-1,-1,-1,-1],"split_conditions":[-1.1763581E0,1.626977E0,-9.370554E-1,1.368419E0,1.3678455E-1,-5.1325315E-1,-8.00311E-1,-1.1934512E0,-6.525474E-2,1E0,-6.9776125E-2,1E0,-6.293805E-1,-1.0008756E0,1.2676167E-1,-1.2046779E0,1.19742386E-1,6.831853E-1,-5.9103813E-2,1E0,8.6899924E-1,-1.535312E0,1E0,4.5441892E-2,-6.615273E-2,1.3658187E-1,-1.8005293E-2,-6.863837E-2,-1.003273E0,8.237762E-1,1.1599997E0,1.2395739E-2,-6.587801E-2,1.6703274E-2,1.3809483E-1,2.7406514E-2,-4.1047685E-2,1.9433491E-3,1.392621E-1,-6.1632838E-2,5.9864315E-4],"split_indices":[3,4,3,4,0,4,3,3,0,6,0,5,3,4,0,0,0,1,0,12,4,3,9,0,0,0,0,0,0,4,4,0,0,0,0,0,0,0,0,0,0],"split_type":[0,0,0,0,0,0,0,0,0,0,0,0,0,0,0,0,0,0,0,0,0,0,0,0,0,0,0,0,0,0,0,0,0,0,0,0,0,0,0,0,0],"sum_hessian":[5.574271E2,8.86718E1,4.687553E2,8.264556E1,6.026239E0,3.7879215E1,4.308761E2,7.403665E1,8.608912E0,1.5065598E1,2.281362E1,1.678738E1,4.140887E2,7.0162636E1,3.8740108E0,1.2052478E1,3.0131195E0,1.24829235E1,4.304456E0,1.9370054E1,3.9471866E2,2.9270304E1,4.0892338E1,2.152228E0,9.9002495E0,1.0330695E1,2.152228E0,1.6356934E1,3.0131195E0,2.9571616E2,9.9002495E1,1.9800499E1,9.469804E0,3.443565E1,6.4566846E0,1.7217826E0,1.2913369E0,2.8882904E2,6.8871303E0,3.2283424E1,6.671908E1],"tree_param":{"num_deleted":"0","num_feature":"15","num_nodes":"41","size_leaf_vector":"1"}},{"base_weights":[7.060136E-5,-2.0818574E-2,9.389762E-1,2.0500518E-1,-9.9046364E-2,-4.64739E-2,1.2059349E-1,1.2251226E-1,1.227505E-1,-5.740835E-1,-4.7474474E-2,-4.0182054E-1,2.435078E-1,-6.615442E-1,1.8261866E-1,-2.9927777E-2,-6.623462E-2,9.6955664E-2,-5.766831E-1,4.0068078E-1,-3.957796E-1,-7.096806E-2,-3.6177254E-1,-5.117869E-2,9.010952E-2,-7.100812E-2,8.770652E-1,-6.9420725E-2,-9.881759E-3,1.2868291E-1,3.022636E-2,-5.553584E-2,9.006422E-2,-6.035766E-2,2.3645712E-2,1.0021738E-2,-1.3657833E-2,1.0101267E-1,-1.2439492E-2],"categories":[],"categories_nodes":[],"categories_segments":[],"categories_sizes":[],"default_left":[0,0,0,0,0,0,0,0,0,0,0,0,0,0,0,0,0,0,0,0,0,0,0,0,0,0,0,0,0,0,0,0,0,0,0,0,0,0,0],"id":3,"left_children":[1,3,5,7,9,-1,-1,11,-1,13,15,17,19,21,23,25,-1,-1,27,29,31,-1,33,-1,-1,35,37,-1,-1,-1,-1,-1,-1,-1,-1,-1,-1,-1,-1],"loss_changes":[1.1347724E1,1.0018977E1,5.2792463E0,1.2160122E1,1.0287779E1,0E0,0E0,8.736256E0,0E0,2.8437777E0,4.089724E0,6.7717047E0,1.1337379E1,2.7857018E-1,2.9789042E0,1.3899811E1,0E0,0E0,1.2570343E0,7.442459E0,5.146352E0,0E0,1.1802714E0,0E0,0E0,4.013015E0,2.2800007E0,0E0,0E0,0E0,0E0,0E0,0E0,0E0,0E0,0E0,0E0,0E0,0E0],"parents":[2147483647,0,0,1,1,2,2,3,3,4,4,7,7,9,9,10,10,11,11,12,12,13,13,14,14,15,15,18,18,19,19,20,20,22,22,25,25,26,26],"right_children":[2,4,6,8,10,-1,-1,12,-1,14,16,18,20,22,24,26,-1,-1,28,30,32,-1,34,-1,-1,36,38,-1,-1,-1,-1,-1,-1,-1,-1,-1,-1,-1,-1],"split_conditions":[1.7026764E0,-8.740545E-1,-1.3131025E0,-8.8781804E-1,-7.079089E-1,-4.64739E-2,1.2059349E-1,-1.4840329E0,1.227505E-1,1E0,1.5756227E0,-1.7404287E0,1.0799242E0,9.1007453E-1,-3.5589176E-1,1.5072504E0,-6.623462E-2,9.6955664E-2,1E0,-1.1934512E0,-1.0490481E0,-7.096806E-2,-8.386625E-1,-5.117869E-2,9.010952E-2,-6.1228746E-1,1.1563462E0,-6.9420725E-2,-9.881759E-3,1.2868291E-1,3.022636E-2,-5.553584E-2,9.006422E-2,-6.035766E-2,2.3645712E-2,1.0021738E-2,-1.3657833E-2,1.0101267E-1,-1.2439492E-2],"split_indices":[4,4,3,4,4,0,0,3,0,12,3,3,3,0,3,3,0,0,12,3,4,0,4,0,0,3,1,0,0,0,0,0,0,0,0,0,0,0,0],"split_type":[0,0,0,0,0,0,0,0,0,0,0,0,0,0,0,0,0,0,0,0,0,0,0,0,0,0,0,0,0,0,0,0,0,0,0,0,0,0,0],"sum_hessian":[5.765862E2,5.649938E2,1.1592398E1,1.4494725E2,4.200465E2,1.7339777E0,9.858419E0,1.3516246E2,9.78478E0,4.0143787E1,3.799027E2,2.4907059E1,1.1025541E2,3.609736E1,4.0464315E0,3.7038174E2,9.520972E0,2.3027592E0,2.26043E1,8.8797264E1,2.1458145E1,2.9924732E1,6.172624E0,2.2039745E0,1.8424573E0,3.5521475E2,1.5166998E1,1.7779068E1,4.8252316E0,7.669134E0,8.112813E1,1.961529E1,1.8428571E0,4.389467E0,1.7831577E0,9.821486E1,2.5699988E2,1.3380509E1,1.7864888E0],"tree_param":{"num_deleted":"0","num_feature":"15","num_nodes":"39","size_leaf_vector":"1"}},{"base_weights":[-1.9215226E-4,2.2402246E-2,-6.997038E-2,-8.844332E-2,1.8044522E-1,-1.7467666E-1,1.4421366E-1,3.3099756E-1,-2.7270053E-2,-2.6187736E-1,1.6972338E-1,3.179821E-1,-2.5080988E-1,1.890339E-1,6.907258E-1,-1.7667395E-1,4.872473E-1,8.9194916E-2,-2.9164582E-1,-1.5275756E-2,1.1387403E-1,7.752191E-1,1.0593394E-1,-6.9133684E-2,7.018363E-2,2.4128245E-1,-6.555301E-2,5.040204E-1,1.1585411E0,-7.0139326E-2,-6.2151115E-2,7.234719E-1,-6.0016777E-2,-6.008364E-2,-2.4574058E-2,3.6334813E-2,-2.9833714E-2,-4.2091835E-2,8.809446E-2,-1.9184474E-2,4.7284685E-2,7.75521E-2,-6.7125864E-2,1.8295415E-2,1.1330583E-1,2.6071206E-2,1.1721368E-1,1.2285508E-1,4.05515E-2,-6.999358E-2,4.834635E-3,-4.7582906E-2,8.720509E-2],"categories":[],"categories_nodes":[],"categories_segments":[],"categories_sizes":[],"default_left":[0,0,0,0,0,0,0,0,0,0,0,0,0,0,0,0,0,0,0,0,0,0,0,0,0,0,0,0,0,0,0,0,0,0,0,0,0,0,0,0,0,0,0,0,0,0,0,0,0,0,0,0,0],"id":4,"left_children":[1,3,-1,5,7,9,11,13,15,17,19,21,23,25,27,29,31,-1,33,35,-1,37,39,-1,41,43,-1,45,47,-1,49,51,-1,-1,-1,-1,-1,-1,-1,-1,-1,-1,-1,-1,-1,-1,-1,-1,-1,-1,-1,-1,-1],"loss_changes":[9.352031E0,1.0057584E1,0E0,6.798E0,7.408767E0,7.454684E0,6.3835683E0,6.879368E0,7.8007827E0,7.036454E0,9.063086E0,6.144424E0,4.09488E0,4.562091E0,2.7757683E0,4.6741953E0,6.3038263E0,0E0,2.5927944E0,4.7551274E0,0E0,2.9238825E0,5.0108247E0,0E0,9.652214E0,4.719483E0,0E0,4.4513407E0,3.966427E-2,0E0,4.652749E0,3.8407793E0,0E0,0E0,0E0,0E0,0E0,0E0,0E0,0E0,0E0,0E0,0E0,0E0,0E0,0E0,0E0,0E0,0E0,0E0,0E0,0E0,0E0],"parents":[2147483647,0,0,1,1,3,3,4,4,5,5,6,6,7,7,8,8,9,9,10,10,11,11,12,12,13,13,14,14,15,15,16,16,18,18,19,19,21,21,22,22,24,24,25,25,27,27,28,28,30,30,31,31],"right_children":[2,4,-1,6,8,10,12,14,16,18,20,22,24,26,28,30,32,-1,34,36,-1,38,40,-1,42,44,-1,46,48,-1,50,52,-1,-1,-1,-1,-1,-1,-1,-1,-1,-1,-1,-1,-1,-1,-1,-1,-1,-1,-1,-1,-1],"split_conditions":[1.6427066E0,8.1922346E-1,-6.997038E-2,8.473708E-1,3.2783014E-1,1.0457381E0,1.4165914E0,-2.3624043E-1,1E0,-1.6549634E0,1E0,-5.9519446E-1,-3.5589176E-1,-3.0461264E-1,1E0,-8.4947675E-1,6.3993466E-1,8.9194916E-2,-1.3131025E0,-4.8063453E-2,1.1387403E-1,9.2896897E-1,8.8489896E-1,-6.9133684E-2,4.132954E-1,-3.5589176E-1,-6.555301E-2,1.0960976E0,1.1563462E0,-7.0139326E-2,4.987606E-1,-1.5809104E0,-6.0016777E-2,-6.008364E-2,-2.4574058E-2,3.6334813E-2,-2.9833714E-2,-4.2091835E-2,8.809446E-2,-1.9184474E-2,4.7284685E-2,7.75521E-2,-6.7125864E-2,1.8295415E-2,1.1330583E-1,2.6071206E-2,1.1721368E-1,1.2285508E-1,4.05515E-2,-6.999358E-2,4.834635E-3,-4.7582906E-2,8.720509E-2],"split_indices":[4,2,0,4,3,3,4,3,5,3,8,3,3,3,6,4,4,0,3,1,0,4,0,0,3,3,0,4,1,0,3,4,0,0,0,0,0,0,0,0,0,0,0,0,0,0,0,0,0,0,0,0,0],"split_type":[0,0,0,0,0,0,0,0,0,0,0,0,0,0,0,0,0,0,0,0,0,0,0,0,0,0,0,0,0,0,0,0,0,0,0,0,0,0,0,0,0,0,0,0,0,0,0,0,0,0,0,0,0],"sum_hessian":[5.8972003E2,5.722056E2,1.7514408E1,3.3658066E2,2.3562497E2,2.4574536E2,9.083528E1,1.3626581E2,9.935916E1,1.9628613E2,4.945924E1,6.3220154E1,2.7615131E1,9.880052E1,3.7465286E1,7.750898E1,2.1850185E1,4.2083325E0,1.9207779E2,4.2356934E1,7.1023064E0,1.9188454E1,4.40317E1,1.1153915E1,1.6461216E1,9.3717064E1,5.0834513E0,2.8262926E1,9.202362E0,1.2967978E1,6.4541E1,1.8225628E1,3.6245575E0,2.3268223E1,1.6880957E2,1.7998474E1,2.435846E1,1.3162024E0,1.787225E1,2.456909E1,1.946261E1,8.412451E0,8.048765E0,8.909481E1,4.622258E0,2.1737123E1,6.5258017E0,7.841813E0,1.3605486E0,8.74293E0,5.579807E1,1.7662518E0,1.6459377E1],"tree_param":{"num_deleted":"0","num_feature":"15","num_nodes":"53","size_leaf_vector":"1"}},{"base_weights":[1.303676E-4,2.1886362E-1,-4.224009E-2,1.2796119E-1,1.22599564E-1,-4.3021986E-1,-8.148478E-3,2.2111054E-1,-6.38294E-2,-4.6686824E-2,-6.7642696E-2,6.186456E-1,-3.5577282E-2,1.5203127E-1,1.1531887E-1,-4.2013472E-1,1.10451296E-1,1.0190254E0,-5.7605207E-2,-3.885084E-1,6.6617425E-3,-1.4103621E-1,3.56227E-1,4.3076042E-2,-6.387905E-2,1.2423273E-1,-1.6220527E-2,-5.564044E-1,2.1428931E-1,8.089842E-2,-2.3025809E-1,1.1318291E-2,-6.461386E-2,6.199003E-2,-3.468289E-2,3.276914E-2,-6.3610755E-2,7.358808E-2,-5.5984408E-2,-2.4599668E-3,6.0424305E-2,3.116618E-2,-3.8158678E-2],"categories":[],"categories_nodes":[],"categories_segments":[],"categories_sizes":[],"default_left":[0,0,0,0,0,0,0,0,0,0,0,0,0,0,0,0,0,0,0,0,0,0,0,0,0,0,0,0,0,0,0,0,0,0,0,0,0,0,0,0,0,0,0],"id":5,"left_children":[1,3,5,7,-1,9,11,13,-1,15,-1,17,19,21,-1,23,-1,25,-1,27,29,31,33,-1,-1,-1,-1,35,37,39,41,-1,-1,-1,-1,-1,-1,-1,-1,-1,-1,-1,-1],"loss_changes":[5.179932E0,8.146554E0,6.189577E0,6.1585436E0,0E0,3.537806E0,7.439082E0,4.7123537E0,0E0,7.2792854E0,0E0,9.264936E0,6.17843E0,4.3484526E0,0E0,2.6369414E0,0E0,3.8809452E0,0E0,4.6025476E0,6.543478E0,3.9523463E0,8.114706E0,0E0,0E0,0E0,0E0,2.6695118E0,4.6001477E0,1.5651445E1,7.3987417E0,0E0,0E0,0E0,0E0,0E0,0E0,0E0,0E0,0E0,0E0,0E0,0E0],"parents":[2147483647,0,0,1,1,2,2,3,3,5,5,6,6,7,7,9,9,11,11,12,12,13,13,15,15,17,17,19,19,20,20,21,21,22,22,27,27,28,28,29,29,30,30],"right_children":[2,4,6,8,-1,10,12,14,-1,16,-1,18,20,22,-1,24,-1,26,-1,28,30,32,34,-1,-1,-1,-1,36,38,40,42,-1,-1,-1,-1,-1,-1,-1,-1,-1,-1,-1,-1],"split_conditions":[-1.1763581E0,1.626977E0,-9.370554E-1,1.368419E0,1.22599564E-1,-5.1325315E-1,-8.00311E-1,-1.1934512E0,-6.38294E-2,1E0,-6.7642696E-2,1E0,-5.2682227E-1,-1.0008756E0,1.1531887E-1,-1.2046779E0,1.10451296E-1,6.831853E-1,-5.7605207E-2,9.8107374E-1,8.6899924E-1,-1.535312E0,5.239277E-1,4.3076042E-2,-6.387905E-2,1.2423273E-1,-1.6220527E-2,-1.4452413E0,8.1922346E-1,3.4598482E-1,-9.780974E-1,1.1318291E-2,-6.461386E-2,6.199003E-2,-3.468289E-2,3.276914E-2,-6.3610755E-2,7.358808E-2,-5.5984408E-2,-2.4599668E-3,6.0424305E-2,3.116618E-2,-3.8158678E-2],"split_indices":[3,4,3,4,0,4,3,3,0,6,0,5,3,4,0,0,0,1,0,4,4,3,4,0,0,0,0,4,2,4,0,0,0,0,0,0,0,0,0,0,0,0,0],"split_type":[0,0,0,0,0,0,0,0,0,0,0,0,0,0,0,0,0,0,0,0,0,0,0,0,0,0,0,0,0,0,0,0,0,0,0,0,0,0,0,0,0,0,0],"sum_hessian":[5.569179E2,8.969759E1,4.672203E2,8.330559E1,6.3919997E0,3.6799854E1,4.3042044E2,7.4910576E1,8.395019E0,1.4852601E1,2.1947254E1,1.7142021E1,4.1327844E2,7.0824646E1,4.0859284E0,1.1694096E1,3.1585052E0,1.2949343E1,4.192679E0,4.3298336E1,3.699801E2,2.9210384E1,4.1614258E1,2.1923935E0,9.501702E0,1.0847071E1,2.1022718E0,3.392597E1,9.372368E0,2.8221054E2,8.776956E1,1.9946957E1,9.263427E0,3.0350077E1,1.1264182E1,2.548265E0,3.1377703E1,5.6290617E0,3.7433062E0,2.3565846E2,4.6552063E1,1.892787E1,6.88417E1],"tree_param":{"num_deleted":"0","num_feature":"15","num_nodes":"43","size_leaf_vector":"1"}},{"base_weights":[2.2672849E-4,-1.927457E-2,8.5328555E-1,1.9332464E-1,-9.3602195E-2,-4.4789862E-2,1.0880711E-1,1.1501672E-1,1.14162646E-1,-5.568692E-1,-4.4367258E-2,-3.860056E-1,2.2770937E-1,-6.437724E-1,1.7299657E-1,-2.7608508E-2,-6.456497E-2,9.2663035E-2,-5.599985E-1,3.733318E-1,-3.8222528E-1,-1.7918184E-2,-6.679204E-2,-5.0152577E-2,8.5197315E-2,-6.6629454E-2,8.1089526E-1,-6.792166E-2,-8.248386E-3,6.5459046E-3,6.3390836E-2,-5.3920444E-2,8.410623E-2,-4.925382E-3,-6.7067616E-2,9.335708E-2,-1.2758306E-2],"categories":[],"categories_nodes":[],"categories_segments":[],"categories_sizes":[],"default_left":[0,0,0,0,0,0,0,0,0,0,0,0,0,0,0,0,0,0,0,0,0,0,0,0,0,0,0,0,0,0,0,0,0,0,0,0,0],"id":6,"left_children":[1,3,5,7,9,-1,-1,11,-1,13,15,17,19,21,23,25,-1,-1,27,29,31,-1,-1,-1,-1,33,35,-1,-1,-1,-1,-1,-1,-1,-1,-1,-1],"loss_changes":[9.603001E0,8.936121E0,4.4286747E0,1.0749378E1,9.528546E0,0E0,0E0,7.7925215E0,0E0,2.6580105E0,3.8081937E0,6.3263845E0,1.009322E1,2.8521442E-1,2.744753E0,1.2174441E1,0E0,0E0,1.2576103E0,7.2544146E0,4.6947384E0,0E0,0E0,0E0,0E0,3.6917725E0,2.024271E0,0E0,0E0,0E0,0E0,0E0,0E0,0E0,0E0,0E0,0E0],"parents":[2147483647,0,0,1,1,2,2,3,3,4,4,7,7,9,9,10,10,11,11,12,12,13,13,14,14,15,15,18,18,19,19,20,20,25,25,26,26],"right_children":[2,4,6,8,10,-1,-1,12,-1,14,16,18,20,22,24,26,-1,-1,28,30,32,-1,-1,-1,-1,34,36,-1,-1,-1,-1,-1,-1,-1,-1,-1,-1],"split_conditions":[1.7026764E0,-8.740545E-1,-1.3131025E0,-8.8781804E-1,-7.079089E-1,-4.4789862E-2,1.0880711E-1,-1.4840329E0,1.14162646E-1,1E0,1.5756227E0,-1.7404287E0,1.0799242E0,-1.5865912E0,-3.5589176E-1,1.5072504E0,-6.456497E-2,9.2663035E-2,1E0,-6.5309964E-2,-1.0490481E0,-1.7918184E-2,-6.679204E-2,-5.0152577E-2,8.5197315E-2,1.4217852E0,1.1563462E0,-6.792166E-2,-8.248386E-3,6.5459046E-3,6.3390836E-2,-5.3920444E-2,8.410623E-2,-4.925382E-3,-6.7067616E-2,9.335708E-2,-1.2758306E-2],"split_indices":[4,4,3,4,4,0,0,3,0,12,3,3,3,3,3,3,0,0,12,3,4,0,0,0,0,3,1,0,0,0,0,0,0,0,0,0,0],"split_type":[0,0,0,0,0,0,0,0,0,0,0,0,0,0,0,0,0,0,0,0,0,0,0,0,0,0,0,0,0,0,0,0,0,0,0,0,0],"sum_hessian":[5.75262E2,5.633608E2,1.1901269E1,1.4552237E2,4.178384E2,1.6804588E0,1.022081E1,1.3545795E2,1.0064423E1,3.915032E1,3.7868808E2,2.4427954E1,1.1103E2,3.509018E1,4.0601387E0,3.6943716E2,9.2509165E0,2.352741E0,2.2075212E1,8.9943756E1,2.1086237E1,2.149797E0,3.2940384E1,2.1678553E0,1.8922833E0,3.5388898E2,1.5548181E1,1.732691E1,4.748303E0,4.1803673E1,4.8140083E1,1.9183695E1,1.9025427E0,3.4504517E2,8.843818E0,1.3755347E1,1.7928338E0],"tree_param":{"num_deleted":"0","num_feature":"15","num_nodes":"37","size_leaf_vector":"1"}},{"base_weights":[-2.2604255E-4,2.0769028E-2,-6.753414E-2,-8.479375E-2,1.6998275E-1,-1.6632763E-1,1.3302092E-1,2.8989884E-1,-6.7437865E-2,-2.4985169E-1,1.5946671E-1,2.9540128E-1,-2.4292181E-1,5.288543E-2,3.969948E-1,-6.807133E-2,2.6753988E-2,8.441117E-2,-2.788474E-1,-1.5551596E-2,1.0538304E-1,7.158235E-1,9.747826E-2,-6.7436114E-2,6.469289E-2,2.8831646E-1,-6.8609886E-2,1.1158886E-1,3.2368696E-1,-6.50006E-2,1.1150541E-1,-6.930234E-2,-2.4408758E-2,3.387822E-2,-2.8603224E-2,3.0128574E-2,1.0428273E-1,-1.8425424E-2,4.3788746E-2,7.2122745E-2,-6.53798E-2,-5.0314325E-3,5.711424E-2,5.382536E-3,4.823741E-2,5.5092573E-2,-9.867351E-3],"categories":[],"categories_nodes":[],"categories_segments":[],"categories_sizes":[],"default_left":[0,0,0,0,0,0,0,0,0,0,0,0,0,0,0,0,0,0,0,0,0,0,0,0,0,0,0,0,0,0,0,0,0,0,0,0,0,0,0,0,0,0,0,0,0,0,0],"id":7,"left_children":[1,3,-1,5,7,9,11,13,15,17,19,21,23,25,27,-1,29,-1,31,33,-1,35,37,-1,39,41,-1,-1,43,-1,45,-1,-1,-1,-1,-1,-1,-1,-1,-1,-1,-1,-1,-1,-1,-1,-1],"loss_changes":[8.367437E0,9.032708E0,0E0,5.988942E0,6.7828884E0,6.7044E0,5.6921E0,3.9901752E0,4.670121E0,6.431246E0,7.9347715E0,5.3179483E0,3.802194E0,8.955117E0,5.3667984E0,0E0,4.1316586E0,0E0,2.5811348E0,4.2461443E0,0E0,2.4737892E0,4.413688E0,0E0,8.700583E0,3.7521892E0,0E0,0E0,4.2581196E0,0E0,5.941965E0,0E0,0E0,0E0,0E0,0E0,0E0,0E0,0E0,0E0,0E0,0E0,0E0,0E0,0E0,0E0,0E0],"parents":[2147483647,0,0,1,1,3,3,4,4,5,5,6,6,7,7,8,8,9,9,10,10,11,11,12,12,13,13,14,14,16,16,18,18,19,19,21,21,22,22,24,24,25,25,28,28,30,30],"right_children":[2,4,-1,6,8,10,12,14,16,18,20,22,24,26,28,-1,30,-1,32,34,-1,36,38,-1,40,42,-1,-1,44,-1,46,-1,-1,-1,-1,-1,-1,-1,-1,-1,-1,-1,-1,-1,-1,-1,-1],"split_conditions":[1.6427066E0,8.1922346E-1,-6.753414E-2,8.473708E-1,6.52598E-1,1.0457381E0,1.4165914E0,-1.1079859E0,7.380633E-1,-1.6549634E0,1E0,-5.9519446E-1,-3.5589176E-1,-1.3643816E0,-1.0054276E0,-6.807133E-2,-1.1807847E0,8.441117E-2,-1.4816164E0,-4.8063453E-2,1.0538304E-1,1.1501687E0,8.8489896E-1,-6.7436114E-2,4.132954E-1,-1.0490481E0,-6.8609886E-2,1.1158886E-1,-3.2941163E-1,-6.50006E-2,-3.2941163E-1,-6.930234E-2,-2.4408758E-2,3.387822E-2,-2.8603224E-2,3.0128574E-2,1.0428273E-1,-1.8425424E-2,4.3788746E-2,7.2122745E-2,-6.53798E-2,-5.0314325E-3,5.711424E-2,5.382536E-3,4.823741E-2,5.5092573E-2,-9.867351E-3],"split_indices":[4,2,0,4,3,3,4,3,3,3,8,3,3,3,3,0,4,0,4,1,0,4,0,0,3,4,0,0,4,0,4,0,0,0,0,0,0,0,0,0,0,0,0,0,0,0,0],"split_type":[0,0,0,0,0,0,0,0,0,0,0,0,0,0,0,0,0,0,0,0,0,0,0,0,0,0,0,0,0,0,0,0,0,0,0,0,0,0,0,0,0,0,0,0,0,0,0],"sum_hessian":[5.883435E2,5.7153876E2,1.6804758E1,3.349832E2,2.3655556E2,2.4391545E2,9.1067726E1,1.5702469E2,7.953087E1,1.9432846E2,4.9586994E1,6.3747578E1,2.7320152E1,4.9335163E1,1.0768953E2,9.759659E0,6.977121E1,4.2918544E0,1.900366E2,4.229323E1,7.293764E0,1.9567081E1,4.4180492E1,1.0875165E1,1.6444986E1,3.7877666E1,1.1457497E1,8.649194E0,9.904034E1,7.0228157E0,6.274839E1,1.3247721E1,1.767889E2,1.8199322E1,2.4093906E1,9.475935E0,1.0091147E1,2.4424664E1,1.975583E1,8.590995E0,7.8539915E0,1.7612326E1,2.0265343E1,3.7169495E1,6.1870842E1,1.9777796E1,4.2970596E1],"tree_param":{"num_deleted":"0","num_feature":"15","num_nodes":"47","size_leaf_vector":"1"}},{"base_weights":[4.596095E-6,2.0421189E-1,-3.9926764E-2,1.192892E-1,1.1151618E-1,-4.123033E-1,-8.040383E-3,2.0735061E-1,-6.2594555E-2,-3.8378216E-2,-6.586695E-2,5.8072114E-1,-3.4217425E-2,1.4093147E-1,1.0897022E-1,-4.0498415E-1,1.04023874E-1,9.46436E-1,-5.6270927E-2,-5.6213206E-1,-8.224521E-3,-1.352047E-1,3.2936957E-1,4.0920522E-2,-6.230398E-2,1.1413167E-1,-1.4562547E-2,-6.559559E-2,-3.031059E-2,2.5228972E-2,-3.286639E-1,1.027217E-2,-6.274763E-2,1.2715936E-2,1.2175907E-1,-3.977418E-2,2.8861707E-2,-2.451933E-3,7.3009215E-2,1.1844536E-1,-5.2134603E-2],"categories":[],"categories_nodes":[],"categories_segments":[],"categories_sizes":[],"default_left":[0,0,0,0,0,0,0,0,0,0,0,0,0,0,0,0,0,0,0,0,0,0,0,0,0,0,0,0,0,0,0,0,0,0,0,0,0,0,0,0,0],"id":8,"left_children":[1,3,5,7,-1,9,11,13,-1,15,-1,17,19,21,-1,23,-1,25,-1,27,29,31,33,-1,-1,-1,-1,-1,35,37,39,-1,-1,-1,-1,-1,-1,-1,-1,-1,-1],"loss_changes":[4.548013E0,6.9241676E0,5.5360327E0,5.6795278E0,0E0,3.362721E0,6.6585097E0,4.322679E0,0E0,6.617208E0,0E0,8.22345E0,5.667408E0,3.800468E0,0E0,2.4589183E0,0E0,3.2111988E0,0E0,9.472456E-1,4.2422957E0,3.5766478E0,7.6032553E0,0E0,0E0,0E0,0E0,0E0,5.782669E-1,1.2591145E1,1.1523777E1,0E0,0E0,0E0,0E0,0E0,0E0,0E0,0E0,0E0,0E0],"parents":[2147483647,0,0,1,1,2,2,3,3,5,5,6,6,7,7,9,9,11,11,12,12,13,13,15,15,17,17,19,19,20,20,21,21,22,22,28,28,29,29,30,30],"right_children":[2,4,6,8,-1,10,12,14,-1,16,-1,18,20,22,-1,24,-1,26,-1,28,30,32,34,-1,-1,-1,-1,-1,36,38,40,-1,-1,-1,-1,-1,-1,-1,-1,-1,-1],"split_conditions":[-1.1763581E0,1.626977E0,-9.370554E-1,1.368419E0,1.1151618E-1,-5.1325315E-1,-8.00311E-1,-1.1934512E0,-6.2594555E-2,1E0,-6.586695E-2,1E0,-6.293805E-1,-1.0008756E0,1.0897022E-1,-1.2046779E0,1.04023874E-1,6.831853E-1,-5.6270927E-2,1E0,1.5072504E0,-1.535312E0,1E0,4.0920522E-2,-6.230398E-2,1.1413167E-1,-1.4562547E-2,-6.559559E-2,-7.8321797E-1,1.3875991E0,-1.0490481E0,1.027217E-2,-6.274763E-2,1.2715936E-2,1.2175907E-1,-3.977418E-2,2.8861707E-2,-2.451933E-3,7.3009215E-2,1.1844536E-1,-5.2134603E-2],"split_indices":[3,4,3,4,0,4,3,3,0,6,0,5,3,4,0,0,0,1,0,12,3,3,9,0,0,0,0,0,3,3,4,0,0,0,0,0,0,0,0,0,0],"split_type":[0,0,0,0,0,0,0,0,0,0,0,0,0,0,0,0,0,0,0,0,0,0,0,0,0,0,0,0,0,0,0,0,0,0,0,0,0,0,0,0,0],"sum_hessian":[5.55746E2,9.0225E1,4.6552094E2,8.35656E1,6.6593976E0,3.5777115E1,4.2974384E2,7.538001E1,8.185591E0,1.4668938E1,2.1108175E1,1.7391783E1,4.1235205E2,7.118153E1,4.1984777E0,1.1414017E1,3.2549212E0,1.3307724E1,4.0840597E0,1.8382288E1,3.9396976E2,2.898685E1,4.219468E1,2.225965E0,9.188051E0,1.1254272E1,2.0534515E0,1.542721E1,2.9550786E0,3.5756198E2,3.640778E1,2.0075314E1,8.911538E0,3.5301247E1,6.893432E0,1.2582953E0,1.6967833E0,3.3489102E2,2.2670948E1,3.5311055E0,3.2876675E1],"tree_param":{"num_deleted":"0","num_feature":"15","num_nodes":"41","size_leaf_vector":"1"}},{"base_weights":[1.1852524E-4,-1.8083338E-2,7.843017E-1,1.8194306E-1,-8.8520676E-2,-4.3142702E-2,9.947327E-2,1.0759716E-1,1.0658222E-1,-5.418155E-1,-4.1365948E-2,-3.7104982E-1,2.125984E-1,-6.281214E-1,1.6298297E-1,-2.5045317E-2,-6.355328E-2,8.82099E-2,-5.43815E-1,1.1507269E-1,1.2924495E-1,-6.7719735E-2,-3.3293352E-1,-4.9257174E-2,8.082458E-2,-6.176907E-2,7.452526E-1,-6.65202E-2,-6.53329E-3,4.5689598E-2,-1.0945016E-2,-5.819087E-2,2.6547043E-2,1.0074887E-2,-1.2446321E-2,8.589144E-2,-1.3230127E-2],"categories":[],"categories_nodes":[],"categories_segments":[],"categories_sizes":[],"default_left":[0,0,0,0,0,0,0,0,0,0,0,0,0,0,0,0,0,0,0,0,0,0,0,0,0,0,0,0,0,0,0,0,0,0,0,0,0],"id":9,"left_children":[1,3,5,7,9,-1,-1,11,-1,13,15,17,19,21,23,25,-1,-1,27,-1,29,-1,31,-1,-1,33,35,-1,-1,-1,-1,-1,-1,-1,-1,-1,-1],"loss_changes":[8.210956E0,7.937291E0,3.7675638E0,9.52835E0,8.879562E0,0E0,0E0,6.937758E0,0E0,2.484333E0,3.6526022E0,5.874074E0,8.652699E0,2.8291416E-1,2.5410738E0,1.0491047E1,0E0,0E0,1.2643018E0,0E0,8.222624E0,0E0,1.1928765E0,0E0,0E0,3.612862E0,1.7971907E0,0E0,0E0,0E0,0E0,0E0,0E0,0E0,0E0,0E0,0E0],"parents":[2147483647,0,0,1,1,2,2,3,3,4,4,7,7,9,9,10,10,11,11,12,12,13,13,14,14,15,15,18,18,20,20,22,22,25,25,26,26],"right_children":[2,4,6,8,10,-1,-1,12,-1,14,16,18,20,22,24,26,-1,-1,28,-1,30,-1,32,-1,-1,34,36,-1,-1,-1,-1,-1,-1,-1,-1,-1,-1],"split_conditions":[1.7026764E0,-8.740545E-1,-1.3131025E0,-8.8781804E-1,-7.079089E-1,-4.3142702E-2,9.947327E-2,-1.4840329E0,1.0658222E-1,1E0,1.5756227E0,-1.7404287E0,-1.1934512E0,9.1007453E-1,-3.5589176E-1,1.5072504E0,-6.355328E-2,8.82099E-2,1E0,1.1507269E-1,2.8927669E-2,-6.7719735E-2,-8.386625E-1,-4.9257174E-2,8.082458E-2,-6.1228746E-1,1.1563462E0,-6.65202E-2,-6.53329E-3,4.5689598E-2,-1.0945016E-2,-5.819087E-2,2.6547043E-2,1.0074887E-2,-1.2446321E-2,8.589144E-2,-1.3230127E-2],"split_indices":[4,4,3,4,4,0,0,3,0,12,3,3,3,0,3,3,0,0,12,0,0,0,4,0,0,3,1,0,0,0,0,0,0,0,0,0,0],"split_type":[0,0,0,0,0,0,0,0,0,0,0,0,0,0,0,0,0,0,0,0,0,0,0,0,0,0,0,0,0,0,0,0,0,0,0,0,0],"sum_hessian":[5.732612E2,5.612118E2,1.204948E1,1.4574507E2,4.154667E2,1.6229511E0,1.0426529E1,1.3547183E2,1.0273239E1,3.8158806E1,3.773079E2,2.3916227E1,1.1155561E2,3.409278E1,4.0660257E0,3.6823532E2,9.07257E0,2.4002554E0,2.1515972E1,8.058068E0,1.0349754E2,2.8123098E1,5.9696817E0,2.1343088E0,1.931717E0,3.5235663E2,1.5878697E1,1.6850822E1,4.6651487E0,4.323532E1,6.0262222E1,4.2351484E0,1.7345333E0,9.791943E1,2.544372E2,1.4076707E1,1.8019906E0],"tree_param":{"num_deleted":"0","num_feature":"15","num_nodes":"37","size_leaf_vector":"1"}},{"base_weights":[-2.4931584E-4,1.9241167E-2,-6.5331355E-2,-8.078726E-2,1.5941164E-1,-1.5828013E-1,1.2458393E-1,2.9517996E-1,-3.048341E-2,-2.6388252E-1,8.708961E-2,2.784888E-1,-2.371415E-1,1.6442874E-1,6.211457E-1,-1.741197E-1,4.5837626E-1,7.991368E-2,-2.9668632E-1,-1.16005234E-1,7.8780943E-1,5.539023E-1,1.9354617E-2,-6.610954E-2,5.9774674E-2,2.1378797E-1,-6.455123E-2,4.4676036E-1,1.057673E-1,-6.745362E-2,-6.91681E-2,6.734624E-1,-5.7628144E-2,-4.075434E-2,-1.32166315E-2,-4.3886006E-2,2.238204E-2,9.441359E-2,-1.8242382E-2,-4.2494368E-2,6.10814E-2,2.5381802E-2,-6.712092E-2,6.779616E-2,-6.395524E-2,1.586656E-2,1.042243E-1,1.09611176E-1,2.3106266E-2,-6.9482796E-2,3.8332285E-3,-4.4244003E-2,8.020085E-2],"categories":[],"categories_nodes":[],"categories_segments":[],"categories_sizes":[],"default_left":[0,0,0,0,0,0,0,0,0,0,0,0,0,0,0,0,0,0,0,0,0,0,0,0,0,0,0,0,0,0,0,0,0,0,0,0,0,0,0,0,0,0,0,0,0,0,0,0,0,0,0,0,0],"id":10,"left_children":[1,3,-1,5,7,9,11,13,15,17,19,21,23,25,27,29,31,-1,33,35,37,39,41,-1,43,45,-1,47,-1,-1,49,51,-1,-1,-1,-1,-1,-1,-1,-1,-1,-1,-1,-1,-1,-1,-1,-1,-1,-1,-1,-1,-1],"loss_changes":[7.487699E0,8.02205E0,0E0,5.335393E0,6.150659E0,6.3180637E0,5.191351E0,5.822052E0,7.116971E0,6.168458E0,1.0601211E1,4.631448E0,3.5665395E0,4.1584187E0,2.5292892E0,4.059548E0,5.5141926E0,0E0,2.9687815E0,6.4756045E0,2.708684E0,2.0141125E0,5.764249E0,0E0,7.9539547E0,4.1976066E0,0E0,3.9357953E0,0E0,0E0,4.448483E0,3.1564932E0,0E0,0E0,0E0,0E0,0E0,0E0,0E0,0E0,0E0,0E0,0E0,0E0,0E0,0E0,0E0,0E0,0E0,0E0,0E0,0E0,0E0],"parents":[2147483647,0,0,1,1,3,3,4,4,5,5,6,6,7,7,8,8,9,9,10,10,11,11,12,12,13,13,14,14,15,15,16,16,18,18,19,19,20,20,21,21,22,22,24,24,25,25,27,27,30,30,31,31],"right_children":[2,4,-1,6,8,10,12,14,16,18,20,22,24,26,28,30,32,-1,34,36,38,40,42,-1,44,46,-1,48,-1,-1,50,52,-1,-1,-1,-1,-1,-1,-1,-1,-1,-1,-1,-1,-1,-1,-1,-1,-1,-1,-1,-1,-1],"split_conditions":[1.6427066E0,8.1922346E-1,-6.5331355E-2,8.473708E-1,3.2783014E-1,7.380633E-1,1.4165914E0,-2.3624043E-1,1E0,-1.6549634E0,1E0,-3.5589176E-1,-3.5589176E-1,-3.0461264E-1,1E0,-8.4947675E-1,6.3993466E-1,7.991368E-2,1E0,-4.8179364E-1,1.0611283E0,-1.6830149E0,1E0,-6.610954E-2,4.132954E-1,-3.5589176E-1,-6.455123E-2,-1.1658911E-1,1.057673E-1,-6.745362E-2,4.987606E-1,-1.5809104E0,-5.7628144E-2,-4.075434E-2,-1.32166315E-2,-4.3886006E-2,2.238204E-2,9.441359E-2,-1.8242382E-2,-4.2494368E-2,6.10814E-2,2.5381802E-2,-6.712092E-2,6.779616E-2,-6.395524E-2,1.586656E-2,1.042243E-1,1.09611176E-1,2.3106266E-2,-6.9482796E-2,3.8332285E-3,-4.4244003E-2,8.020085E-2],"split_indices":[4,2,0,4,3,3,4,3,5,3,8,3,3,3,6,4,4,0,14,4,0,0,12,0,3,3,0,3,0,0,3,4,0,0,0,0,0,0,0,0,0,0,0,0,0,0,0,0,0,0,0,0,0],"split_type":[0,0,0,0,0,0,0,0,0,0,0,0,0,0,0,0,0,0,0,0,0,0,0,0,0,0,0,0,0,0,0,0,0,0,0,0,0,0,0,0,0,0,0,0,0,0,0,0,0,0,0,0,0],"sum_hessian":[5.8627325E2,5.702256E2,1.6047655E1,3.330081E2,2.3721753E2,2.4194432E2,9.106375E1,1.3799878E2,9.921875E1,1.6909407E2,7.285025E1,6.404455E1,2.7019203E1,9.956553E1,3.8433243E1,7.718434E1,2.2034407E1,4.3625617E0,1.647315E2,5.7127125E1,1.572313E1,3.0495623E1,3.3548927E1,1.0623633E1,1.6395569E1,9.454013E1,5.025398E0,2.8908302E1,9.524941E0,1.2440424E1,6.474392E1,1.8531208E1,3.5031984E0,9.753392E1,6.7197586E1,2.914561E1,2.7981512E1,1.3564484E1,2.1586466E0,1.3203136E0,2.917531E1,2.5517542E1,8.031384E0,8.718867E0,7.676702E0,8.975939E1,4.7807417E0,6.1904464E0,2.2717855E1,8.692054E0,5.6051865E1,1.6619581E0,1.6869251E1],"tree_param":{"num_deleted":"0","num_feature":"15","num_nodes":"53","size_leaf_vector":"1"}},{"base_weights":[1.4118938E-4,1.8834753E-1,-3.7014198E-2,1.0889232E-1,1.0231612E-1,-3.9671198E-1,-7.024678E-3,1.9198033E-1,-6.1486345E-2,-2.7482642E-2,-6.443043E-2,5.4782456E-1,-3.1974856E-2,1.2951039E-1,1.00501016E-1,-3.8596782E-1,9.695848E-2,8.862815E-1,-5.5116165E-2,-3.6625144E-1,6.931665E-3,-1.3542427E-1,3.0828744E-1,3.897021E-2,-6.046173E-2,1.0584714E-1,-1.290519E-2,-5.3413373E-1,2.2003256E-1,7.36252E-2,-2.1119426E-1,9.241453E-3,-6.1818343E-2,1.162606E-2,1.13647856E-1,-6.755727E-2,7.03883E-4,6.750635E-2,-5.244335E-2,-2.5333134E-3,5.5188127E-2,2.8410647E-2,-3.561013E-2],"categories":[],"categories_nodes":[],"categories_segments":[],"categories_sizes":[],"default_left":[0,0,0,0,0,0,0,0,0,0,0,0,0,0,0,0,0,0,0,0,0,0,0,0,0,0,0,0,0,0,0,0,0,0,0,0,0,0,0,0,0,0,0],"id":11,"left_children":[1,3,5,7,-1,9,11,13,-1,15,-1,17,19,21,-1,23,-1,25,-1,27,29,31,33,-1,-1,-1,-1,35,37,39,41,-1,-1,-1,-1,-1,-1,-1,-1,-1,-1,-1,-1],"loss_changes":[3.8876936E0,5.968382E0,5.005628E0,5.218294E0,0E0,3.2471223E0,5.964458E0,3.772584E0,0E0,5.871485E0,0E0,7.385007E0,5.361339E0,3.4759393E0,0E0,2.275528E0,0E0,2.6819277E0,0E0,4.347527E0,5.399084E0,3.346788E0,6.801414E0,0E0,0E0,0E0,0E0,2.5843353E0,3.834738E0,1.3462106E1,6.33913E0,0E0,0E0,0E0,0E0,0E0,0E0,0E0,0E0,0E0,0E0,0E0,0E0],"parents":[2147483647,0,0,1,1,2,2,3,3,5,5,6,6,7,7,9,9,11,11,12,12,13,13,15,15,17,17,19,19,20,20,21,21,22,22,27,27,28,28,29,29,30,30],"right_children":[2,4,6,8,-1,10,12,14,-1,16,-1,18,20,22,-1,24,-1,26,-1,28,30,32,34,-1,-1,-1,-1,36,38,40,42,-1,-1,-1,-1,-1,-1,-1,-1,-1,-1,-1,-1],"split_conditions":[-1.1763581E0,1.626977E0,-9.370554E-1,1.368419E0,1.0231612E-1,-5.1325315E-1,-8.00311E-1,-1.1934512E0,-6.1486345E-2,1E0,-6.443043E-2,1E0,-5.2682227E-1,-1.0008756E0,1.00501016E-1,-1.2046779E0,9.695848E-2,6.831853E-1,-5.5116165E-2,9.8107374E-1,8.6899924E-1,-1.535312E0,1E0,3.897021E-2,-6.046173E-2,1.0584714E-1,-1.290519E-2,1E0,8.1922346E-1,3.4598482E-1,-9.780974E-1,9.241453E-3,-6.1818343E-2,1.162606E-2,1.13647856E-1,-6.755727E-2,7.03883E-4,6.750635E-2,-5.244335E-2,-2.5333134E-3,5.5188127E-2,2.8410647E-2,-3.561013E-2],"split_indices":[3,4,3,4,0,4,3,3,0,6,0,5,3,4,0,0,0,1,0,4,4,3,9,0,0,0,0,7,2,4,0,0,0,0,0,0,0,0,0,0,0,0,0],"split_type":[0,0,0,0,0,0,0,0,0,0,0,0,0,0,0,0,0,0,0,0,0,0,0,0,0,0,0,0,0,0,0,0,0,0,0,0,0,0,0,0,0,0,0],"sum_hessian":[5.5395337E2,9.06594E1,4.6329398E2,8.3812775E1,6.846625E0,3.4713066E1,4.2858093E2,7.58409E1,7.971879E0,1.4379787E1,2.033328E1,1.754106E1,4.1103986E2,7.150596E1,4.3349376E0,1.1027766E1,3.352021E0,1.3558858E1,3.9822016E0,4.197614E1,3.6906372E2,2.890836E1,4.25976E1,2.2529612E0,8.774805E0,1.1556507E1,2.0023506E0,3.270113E1,9.275011E0,2.8315082E2,8.5912895E1,2.01888E1,8.71956E0,3.5505554E1,7.0920444E0,2.5728477E1,6.9726505E0,5.814382E0,3.4606292E0,2.3539177E2,4.7759052E1,1.9228416E1,6.668448E1],"tree_param":{"num_deleted":"0","num_feature":"15","num_nodes":"43","size_leaf_vector":"1"}},{"base_weights":[2.9117725E-4,-1.6694529E-2,7.283345E-1,1.7148532E-1,-8.347697E-2,-4.154467E-2,9.199239E-2,1.005296E-1,1.006709E-1,-5.291727E-1,-3.805415E-2,-3.5595307E-1,1.9787632E-1,-6.145491E-1,1.4967282E-1,-1.2925184E-1,6.2283777E-2,8.4699675E-2,-5.2809614E-1,3.2816592E-1,-3.6834496E-1,-6.676688E-2,-3.3452806E-1,-4.856497E-2,7.6514564E-2,-3.7791137E-2,-5.424447E-1,1.2575011E-1,8.34865E-3,-6.516499E-2,-5.0264923E-3,4.4395416E-3,5.6435764E-2,-6.649921E-2,2.7679494E-2,-5.8187187E-2,5.0271254E-2,-1.150246E-2,1.2733196E-1,-6.1731704E-2,4.0158838E-2,3.2771032E-2,-7.078321E-3],"categories":[],"categories_nodes":[],"categories_segments":[],"categories_sizes":[],"default_left":[0,0,0,0,0,0,0,0,0,0,0,0,0,0,0,0,0,0,0,0,0,0,0,0,0,0,0,0,0,0,0,0,0,0,0,0,0,0,0,0,0,0,0],"id":12,"left_children":[1,3,5,7,9,-1,-1,11,-1,13,15,17,19,21,23,25,27,-1,29,31,33,-1,35,-1,-1,37,39,-1,41,-1,-1,-1,-1,-1,-1,-1,-1,-1,-1,-1,-1,-1,-1],"loss_changes":[7.0833535E0,7.048772E0,3.2438693E0,8.607237E0,8.357304E0,0E0,0E0,6.1382484E0,0E0,2.305664E0,3.4542792E0,5.491428E0,8.471214E0,2.8422356E-1,2.3545408E0,7.4476557E0,1.1592743E1,0E0,1.2616515E0,6.1777363E0,4.326371E0,0E0,1.834322E0,0E0,0E0,1.6639702E1,2.7741032E0,0E0,4.4010134E0,0E0,0E0,0E0,0E0,0E0,0E0,0E0,0E0,0E0,0E0,0E0,0E0,0E0,0E0],"parents":[2147483647,0,0,1,1,2,2,3,3,4,4,7,7,9,9,10,10,11,11,12,12,13,13,14,14,15,15,16,16,18,18,19,19,20,20,22,22,25,25,26,26,28,28],"right_children":[2,4,6,8,10,-1,-1,12,-1,14,16,18,20,22,24,26,28,-1,30,32,34,-1,36,-1,-1,38,40,-1,42,-1,-1,-1,-1,-1,-1,-1,-1,-1,-1,-1,-1,-1,-1],"split_conditions":[1.7026764E0,-8.740545E-1,-1.3131025E0,-8.8781804E-1,-7.079089E-1,-4.154467E-2,9.199239E-2,-1.4840329E0,1.006709E-1,1E0,5.239277E-1,-1.7404287E0,1.0799242E0,-7.5214887E-1,-3.5589176E-1,3.4598482E-1,5.858636E-1,8.4699675E-2,1E0,-6.5309964E-2,1.4388782E0,-6.676688E-2,8.8489896E-1,-4.856497E-2,7.6514564E-2,2.8208268E-1,9.604258E-1,1.2575011E-1,-1.1079859E0,-6.516499E-2,-5.0264923E-3,4.4395416E-3,5.6435764E-2,-6.649921E-2,2.7679494E-2,-5.8187187E-2,5.0271254E-2,-1.150246E-2,1.2733196E-1,-6.1731704E-2,4.0158838E-2,3.2771032E-2,-7.078321E-3],"split_indices":[4,4,3,4,4,0,0,3,0,12,4,3,3,4,3,4,4,0,12,3,3,0,0,0,0,4,0,0,3,0,0,0,0,0,0,0,0,0,0,0,0,0,0],"split_type":[0,0,0,0,0,0,0,0,0,0,0,0,0,0,0,0,0,0,0,0,0,0,0,0,0,0,0,0,0,0,0,0,0,0,0,0,0,0,0,0,0,0,0],"sum_hessian":[5.708103E2,5.5875134E2,1.20589485E1,1.4594345E2,4.128079E2,1.5624945E0,1.0496454E1,1.3554842E2,1.0395039E1,3.719499E1,3.756129E2,2.3358433E1,1.1218999E2,3.3123817E1,4.071171E0,1.9661778E2,1.7899513E2,2.4333913E0,2.0925041E1,9.154547E1,2.064452E1,2.6678576E1,6.445244E0,2.1070735E0,1.964097E0,1.6187749E2,3.47403E1,6.7650337E0,1.7223009E2,1.633699E1,4.5880513E0,4.2123962E1,4.9421505E1,1.4120763E1,6.523756E0,5.210833E0,1.2344105E0,1.5373378E2,8.143709E0,3.2508125E1,2.2321713E0,3.357723E1,1.3865286E2],"tree_param":{"num_deleted":"0","num_feature":"15","num_nodes":"43","size_leaf_vector":"1"}},{"base_weights":[-4.5255068E-4,1.7690483E-2,-6.346951E-2,-7.691316E-2,1.4911334E-1,-1.449222E-1,1.2922017E-1,2.5698528E-1,-6.7605935E-2,-2.3607E-1,7.084959E-2,3.0375874E-1,-2.3074268E-1,4.4207618E-2,3.517347E-1,-6.6315025E-2,2.1612389E-2,7.603982E-1,-2.6614684E-1,-1.2208662E-1,7.380564E-1,7.1118855E-1,8.0684654E-2,-6.469112E-2,5.5063672E-2,2.6232415E-1,-6.685765E-2,9.9752024E-2,2.851861E-1,-6.1993796E-2,9.827353E-2,2.9101117E-2,8.612271E-2,-3.2709166E-2,2.8988274E-3,1.7196266E-2,-4.358689E-2,8.832445E-2,-1.7916696E-2,9.101865E-2,1.6337503E-3,2.5096923E-2,-6.3550316E-2,9.746564E-2,-3.8589623E-2,-6.5481975E-3,5.343888E-2,-1.39297E-2,3.7263054E-2,4.998369E-2,-9.724203E-3],"categories":[],"categories_nodes":[],"categories_segments":[],"categories_sizes":[],"default_left":[0,0,0,0,0,0,0,0,0,0,0,0,0,0,0,0,0,0,0,0,0,0,0,0,0,0,0,0,0,0,0,0,0,0,0,0,0,0,0,0,0,0,0,0,0,0,0,0,0,0,0],"id":13,"left_children":[1,3,-1,5,7,9,11,13,15,17,19,21,23,25,27,-1,29,31,33,35,37,39,41,-1,43,45,-1,-1,47,-1,49,-1,-1,-1,-1,-1,-1,-1,-1,-1,-1,-1,-1,-1,-1,-1,-1,-1,-1,-1,-1],"loss_changes":[6.7406106E0,7.0922685E0,0E0,4.6702394E0,5.5979314E0,4.932728E0,5.274831E0,3.201829E0,4.271534E0,5.475973E0,9.74492E0,5.0524707E0,3.3208296E0,7.9975305E0,4.4547024E0,0E0,3.535727E0,5.638838E-3,3.0950403E0,5.522069E0,2.4175158E0,2.7179127E0,4.7277675E0,0E0,7.3897495E0,3.5348082E0,0E0,0E0,3.8147364E0,0E0,5.071309E0,0E0,0E0,0E0,0E0,0E0,0E0,0E0,0E0,0E0,0E0,0E0,0E0,0E0,0E0,0E0,0E0,0E0,0E0,0E0,0E0],"parents":[2147483647,0,0,1,1,3,3,4,4,5,5,6,6,7,7,8,8,9,9,10,10,11,11,12,12,13,13,14,14,16,16,17,17,18,18,19,19,20,20,21,21,22,22,24,24,25,25,28,28,30,30],"right_children":[2,4,-1,6,8,10,12,14,16,18,20,22,24,26,28,-1,30,32,34,36,38,40,42,-1,44,46,-1,-1,48,-1,50,-1,-1,-1,-1,-1,-1,-1,-1,-1,-1,-1,-1,-1,-1,-1,-1,-1,-1,-1,-1],"split_conditions":[1.6427066E0,8.1922346E-1,-6.346951E-2,9.732089E-1,6.52598E-1,7.380633E-1,1.4165914E0,-1.1079859E0,7.380633E-1,-1.6549634E0,1E0,-5.9519446E-1,-3.5589176E-1,-1.3643816E0,-1.0054276E0,-6.6315025E-2,-1.1807847E0,4.250975E-1,1E0,8.098044E-2,1.0611283E0,1E0,1E0,-6.469112E-2,2.9364404E-1,-1.0490481E0,-6.685765E-2,9.9752024E-2,-5.9519446E-1,-6.1993796E-2,-3.2941163E-1,2.9101117E-2,8.612271E-2,-3.2709166E-2,2.8988274E-3,1.7196266E-2,-4.358689E-2,8.832445E-2,-1.7916696E-2,9.101865E-2,1.6337503E-3,2.5096923E-2,-6.3550316E-2,9.746564E-2,-3.8589623E-2,-6.5481975E-3,5.343888E-2,-1.39297E-2,3.7263054E-2,4.998369E-2,-9.724203E-3],"split_indices":[4,2,0,4,3,3,4,3,3,3,8,3,3,3,3,0,4,1,9,1,0,9,12,0,3,4,0,0,3,0,4,0,0,0,0,0,0,0,0,0,0,0,0,0,0,0,0,0,0,0,0],"split_type":[0,0,0,0,0,0,0,0,0,0,0,0,0,0,0,0,0,0,0,0,0,0,0,0,0,0,0,0,0,0,0,0,0,0,0,0,0,0,0,0,0,0,0,0,0,0,0,0,0,0,0],"sum_hessian":[5.838035E2,5.685128E2,1.5290676E1,3.308023E2,2.3771053E2,2.489604E2,8.1841896E1,1.5858774E2,7.912279E1,1.7495895E2,7.400145E1,5.522202E1,2.6619879E1,4.93129E1,1.0927483E2,9.470829E0,6.9651955E1,4.414699E0,1.7054425E2,5.8036156E1,1.5965298E1,1.8763544E1,3.6458473E1,1.0323768E1,1.6296112E1,3.824244E1,1.1070461E1,8.90188E0,1.00372955E2,6.678147E0,6.297381E1,1.4678105E0,2.9468884E0,1.4126503E2,2.9279232E1,3.0193459E1,2.7842695E1,1.3815478E1,2.1498187E0,1.4345301E1,4.4182425E0,2.9979877E1,6.478597E0,4.8893623E0,1.140675E1,1.7688807E1,2.0553633E1,1.7043823E1,8.332913E1,2.011131E1,4.2862503E1],"tree_param":{"num_deleted":"0","num_feature":"15","num_nodes":"51","size_leaf_vector":"1"}},{"base_weights":[1.7762744E-4,2.1361984E-2,-3.0358297E-1,-1.01903705E-2,6.584983E-1,1.0784513E-1,-4.9510738E-1,1.6330322E-2,-6.76582E-2,-3.6644027E-1,1.0258318E0,-6.634232E-2,-5.957367E-2,-1.7877035E-1,8.235466E-2,-5.853212E-2,7.208973E-3,1.1682943E0,-4.3595627E-2,7.484322E-2,-4.64488E-1,1.495662E-1,-2.5243765E-1,4.406982E-1,-9.994017E-3,5.121218E-1,1.2581747E0,2.6874344E-3,-5.7299685E-2,-2.9016534E-2,1.17599964E-1,-3.160818E-2,2.2372186E-2,7.0194595E-2,-7.9628825E-3,1.9727329E-2,-1.371324E-2,8.171167E-2,-1.3160076E-3,4.026323E-2,1.3177675E-1],"categories":[],"categories_nodes":[],"categories_segments":[],"categories_sizes":[],"default_left":[0,0,0,0,0,0,0,0,0,0,0,0,0,0,0,0,0,0,0,0,0,0,0,0,0,0,0,0,0,0,0,0,0,0,0,0,0,0,0,0,0],"id":14,"left_children":[1,3,5,7,9,-1,11,13,-1,15,17,-1,19,21,23,-1,-1,25,-1,-1,27,29,31,33,35,37,39,-1,-1,-1,-1,-1,-1,-1,-1,-1,-1,-1,-1,-1,-1],"loss_changes":[3.5624957E0,1.0410387E1,1.0087318E1,8.743012E0,9.575314E0,0E0,2.3345027E0,6.1481485E0,0E0,7.3171085E-1,4.310068E0,0E0,3.6604242E0,2.9573748E0,1.1799891E1,0E0,0E0,3.5248375E-1,0E0,0E0,4.0793574E-1,1.0608442E1,3.069654E0,9.986987E0,7.5209618E0,6.0715926E-1,1.9233704E-1,0E0,0E0,0E0,0E0,0E0,0E0,0E0,0E0,0E0,0E0,0E0,0E0,0E0,0E0],"parents":[2147483647,0,0,1,1,2,2,3,3,4,4,6,6,7,7,9,9,10,10,12,12,13,13,14,14,17,17,20,20,21,21,22,22,23,23,24,24,25,25,26,26],"right_children":[2,4,6,8,10,-1,12,14,-1,16,18,-1,20,22,24,-1,-1,26,-1,-1,28,30,32,34,36,38,40,-1,-1,-1,-1,-1,-1,-1,-1,-1,-1,-1,-1,-1,-1],"split_conditions":[1.5072504E0,1.3875991E0,-1.0490481E0,1.3021338E0,-1.2298536E0,1.0784513E-1,1.5927156E0,-8.70122E-1,-6.76582E-2,1E0,1E0,-6.634232E-2,-6.502683E-1,-1.535312E0,-3.4907383E-1,-5.853212E-2,7.208973E-3,-1.5965903E0,-4.3595627E-2,7.484322E-2,-8.270436E-1,-1.5865912E0,1.4144341E0,5.1112676E-1,-5.501117E-1,-1.854678E0,-1.0527532E0,2.6874344E-3,-5.7299685E-2,-2.9016534E-2,1.17599964E-1,-3.160818E-2,2.2372186E-2,7.0194595E-2,-7.9628825E-3,1.9727329E-2,-1.371324E-2,8.171167E-2,-1.3160076E-3,4.026323E-2,1.3177675E-1],"split_indices":[3,3,4,3,0,0,3,4,0,9,5,0,1,3,4,0,0,1,0,0,0,3,1,1,0,1,2,0,0,0,0,0,0,0,0,0,0,0,0,0,0],"split_type":[0,0,0,0,0,0,0,0,0,0,0,0,0,0,0,0,0,0,0,0,0,0,0,0,0,0,0,0,0,0,0,0,0,0,0,0,0,0,0,0,0],"sum_hessian":[5.5160693E2,5.165147E2,3.509222E1,4.9308032E2,2.3434387E1,3.7075772E0,3.1384642E1,4.7514618E2,1.7934116E1,6.183511E0,1.7250875E1,2.225916E1,9.1254835E0,1.197069E2,3.554393E2,3.9014618E0,2.2820487E0,1.5901893E1,1.3489836E0,2.7631836E0,6.3623E0,2.1747519E1,9.795939E1,7.205804E1,2.8338126E2,2.722691E0,1.3179201E1,1.2869437E0,5.0753565E0,1.5727185E1,6.0203333E0,8.670629E1,1.1253098E1,4.7739674E1,2.4318361E1,1.07529564E2,1.7585168E2,1.3710432E0,1.3516479E0,1.363307E0,1.1815895E1],"tree_param":{"num_deleted":"0","num_feature":"15","num_nodes":"41","size_leaf_vector":"1"}},{"base_weights":[2.990866E-4,-1.5505772E-2,6.775758E-1,1.5942748E-1,-7.794758E-2,-4.0929537E-2,8.5923396E-2,9.2017874E-2,9.471043E-2,-5.124869E-1,-3.4974653E-2,-3.4253678E-1,1.8228099E-1,-5.973025E-1,1.412367E-1,-1.9290736E-2,-6.1990917E-2,8.025116E-2,-5.126644E-1,1.048394E-1,1.0398224E-1,-6.521811E-2,-3.1203938E-1,-4.748368E-2,7.257291E-2,-5.2902117E-2,6.672265E-1,-6.3775636E-2,-4.0768343E-3,4.005314E-2,-1.1638378E-2,-5.6319218E-2,4.9782634E-2,1.8921917E-2,-9.4902925E-3,7.7263966E-2,-1.4275831E-2],"categories":[],"categories_nodes":[],"categories_segments":[],"categories_sizes":[],"default_left":[0,0,0,0,0,0,0,0,0,0,0,0,0,0,0,0,0,0,0,0,0,0,0,0,0,0,0,0,0,0,0,0,0,0,0,0,0],"id":15,"left_children":[1,3,5,7,9,-1,-1,11,-1,13,15,17,19,21,23,25,-1,-1,27,-1,29,-1,31,-1,-1,33,35,-1,-1,-1,-1,-1,-1,-1,-1,-1,-1],"loss_changes":[6.0992603E0,6.0946784E0,2.9171047E0,7.707549E0,7.657248E0,0E0,0E0,5.410112E0,0E0,2.131198E0,3.4292798E0,5.046917E0,7.5907803E0,3.1103325E-1,2.1624365E0,8.488567E0,0E0,0E0,1.2329831E0,0E0,6.923786E0,0E0,1.7489734E0,0E0,0E0,3.5789385E0,1.5765128E0,0E0,0E0,0E0,0E0,0E0,0E0,0E0,0E0,0E0,0E0],"parents":[2147483647,0,0,1,1,2,2,3,3,4,4,7,7,9,9,10,10,11,11,12,12,13,13,14,14,15,15,18,18,20,20,22,22,25,25,26,26],"right_children":[2,4,6,8,10,-1,-1,12,-1,14,16,18,20,22,24,26,-1,-1,28,-1,30,-1,32,-1,-1,34,36,-1,-1,-1,-1,-1,-1,-1,-1,-1,-1],"split_conditions":[1.7026764E0,-8.740545E-1,-1.3131025E0,-8.8781804E-1,-7.079089E-1,-4.0929537E-2,8.5923396E-2,-1.4840329E0,9.471043E-2,1E0,1.5756227E0,-1.7404287E0,-1.1934512E0,-7.5214887E-1,-3.5589176E-1,1.5072504E0,-6.1990917E-2,8.025116E-2,1E0,1.048394E-1,2.8927669E-2,-6.521811E-2,8.8489896E-1,-4.748368E-2,7.257291E-2,-3.1958053E-1,1.1563462E0,-6.3775636E-2,-4.0768343E-3,4.005314E-2,-1.1638378E-2,-5.6319218E-2,4.9782634E-2,1.8921917E-2,-9.4902925E-3,7.7263966E-2,-1.4275831E-2],"split_indices":[4,4,3,4,4,0,0,3,0,12,3,3,3,4,3,3,0,0,12,0,0,0,0,0,0,4,1,0,0,0,0,0,0,0,0,0,0],"split_type":[0,0,0,0,0,0,0,0,0,0,0,0,0,0,0,0,0,0,0,0,0,0,0,0,0,0,0,0,0,0,0,0,0,0,0,0,0],"sum_hessian":[5.6781573E2,5.558222E2,1.1993503E1,1.4580116E2,4.100211E2,1.5380647E0,1.0455438E1,1.3533589E2,1.0465261E1,3.5915916E1,3.7410516E2,2.2795658E1,1.1254024E2,3.1867645E1,4.0482736E0,3.6534216E2,8.762981E0,2.467949E0,2.032771E1,8.303227E0,1.0423701E2,2.5647385E1,6.22026E0,2.0622282E0,1.9860455E0,3.4917E2,1.6172167E1,1.5790444E1,4.5372653E0,4.4088722E1,6.014829E1,4.980355E0,1.2399054E0,5.1098473E1,2.9807153E2,1.4350649E1,1.821518E0],"tree_param":{"num_deleted":"0","num_feature":"15","num_nodes":"37","size_leaf_vector":"1"}},{"base_weights":[-3.8190596E-4,1.6712269E-2,-6.203524E-2,-7.202909E-2,1.3887663E-1,-1.2562558E-1,1.666229E-1,2.6235685E-1,-3.5696223E-2,-2.1831097E-1,9.325445E-2,3.6069587E-1,-5.8689547E-1,2.1251416E-1,1.02395646E-1,-1.71604E-1,4.2134634E-1,7.245701E-2,-2.44893E-1,2.1161608E-1,-3.931735E-1,7.1530193E-1,-2.4397256E-2,-6.5492846E-2,-8.976029E-3,1.7636822E-1,9.598753E-2,-6.529226E-2,-7.4366264E-2,6.189974E-1,-5.6036737E-2,-6.6576526E-2,-2.1007746E-2,4.5324456E-2,-5.314121E-3,-6.785053E-2,3.787091E-2,8.656413E-2,-5.549748E-2,-6.49983E-2,2.8187484E-2,2.9823786E-2,-1.7389726E-2,-6.9388285E-2,3.190857E-3,-4.197539E-2,7.322108E-2],"categories":[],"categories_nodes":[],"categories_segments":[],"categories_sizes":[],"default_left":[0,0,0,0,0,0,0,0,0,0,0,0,0,0,0,0,0,0,0,0,0,0,0,0,0,0,0,0,0,0,0,0,0,0,0,0,0,0,0,0,0,0,0,0,0,0,0],"id":16,"left_children":[1,3,-1,5,7,9,11,13,15,17,19,21,23,25,-1,27,29,-1,31,33,35,37,39,-1,-1,41,-1,-1,43,45,-1,-1,-1,-1,-1,-1,-1,-1,-1,-1,-1,-1,-1,-1,-1,-1,-1],"loss_changes":[6.1770287E0,6.159439E0,0E0,4.2319946E0,5.1616216E0,5.4859934E0,9.103994E0,5.101101E0,6.277732E0,4.92873E0,4.737938E0,6.70501E0,3.7529182E-1,3.4173212E0,0E0,3.588633E0,4.8460655E0,0E0,2.5726528E0,4.2255073E0,3.8187861E0,5.3556805E0,4.8667154E0,0E0,0E0,5.510144E0,0E0,0E0,4.353101E0,2.6330767E0,0E0,0E0,0E0,0E0,0E0,0E0,0E0,0E0,0E0,0E0,0E0,0E0,0E0,0E0,0E0,0E0,0E0],"parents":[2147483647,0,0,1,1,3,3,4,4,5,5,6,6,7,7,8,8,9,9,10,10,11,11,12,12,13,13,15,15,16,16,18,18,19,19,20,20,21,21,22,22,25,25,28,28,29,29],"right_children":[2,4,-1,6,8,10,12,14,16,18,20,22,24,26,-1,28,30,-1,32,34,36,38,40,-1,-1,42,-1,-1,44,46,-1,-1,-1,-1,-1,-1,-1,-1,-1,-1,-1,-1,-1,-1,-1,-1,-1],"split_conditions":[1.6427066E0,8.1922346E-1,-6.203524E-2,1.0457381E0,3.2783014E-1,8.473708E-1,4.250975E-1,2.7655098E-1,1E0,-1.6549634E0,4.132954E-1,1.4046922E0,1.5414366E0,1.3782501E0,1.02395646E-1,-8.4947675E-1,6.3993466E-1,7.245701E-2,-1.5011259E0,-7.945496E-1,7.893424E-1,1E0,-8.7602067E-1,-6.5492846E-2,-8.976029E-3,3.9219096E-1,9.598753E-2,-6.529226E-2,4.987606E-1,-1.5809104E0,-5.6036737E-2,-6.6576526E-2,-2.1007746E-2,4.5324456E-2,-5.314121E-3,-6.785053E-2,3.787091E-2,8.656413E-2,-5.549748E-2,-6.49983E-2,2.8187484E-2,2.9823786E-2,-1.7389726E-2,-6.9388285E-2,3.190857E-3,-4.197539E-2,7.322108E-2],"split_indices":[4,2,0,3,3,4,1,3,5,3,3,3,3,4,0,4,4,0,3,2,3,5,4,0,0,4,0,0,3,4,0,0,0,0,0,0,0,0,0,0,0,0,0,0,0,0,0],"split_type":[0,0,0,0,0,0,0,0,0,0,0,0,0,0,0,0,0,0,0,0,0,0,0,0,0,0,0,0,0,0,0,0,0,0,0,0,0,0,0,0,0,0,0,0,0,0,0],"sum_hessian":[5.808767E2,5.662371E2,1.46395645E1,3.282231E2,2.3801402E2,2.6841586E2,5.9807247E1,1.3911282E2,9.89012E1,1.8856854E2,7.984731E1,4.7972878E1,1.1834372E1,1.3176831E2,7.344506E0,7.6713844E1,2.218736E1,4.4504495E0,1.841181E2,6.467502E1,1.5172297E1,2.4528643E1,2.3444235E1,1.0130594E1,1.7037778E0,1.2686835E2,4.8999686E0,1.1932796E1,6.4781044E1,1.8776508E1,3.4108524E0,1.2682416E1,1.7143568E2,3.344228E1,3.1232735E1,1.1165766E1,4.0065312E0,2.2217684E1,2.3109584E0,7.336531E0,1.6107704E1,9.423071E1,3.263763E1,8.676028E0,5.610502E1,1.5792252E0,1.7197283E1],"tree_param":{"num_deleted":"0","num_feature":"15","num_nodes":"47","size_leaf_vector":"1"}},{"base_weights":[9.464875E-5,2.771332E-1,-2.1359043E-2,6.4706914E-2,9.407949E-1,-1.935603E-1,1.0162523E-2,-4.1298681E-1,4.8124632E-1,1.0968105E-1,-7.9242914E-4,-3.486687E-1,2.878791E-1,2.225049E-1,-5.9596796E-2,-6.686271E-2,9.446537E-2,8.9032733E-1,-1.2591378E-1,-1.4367166E-1,-5.2704525E-1,5.9374994E-1,-5.9063774E-2,8.3413556E-2,9.3061775E-1,-2.5075309E-2,-4.964571E-1,1.1194487E-1,-4.071004E-2,-5.739487E-2,8.0462635E-2,-4.0815395E-1,1.2879151E-1,-5.744889E-1,-1.3147645E-1,-3.7777078E-1,9.542926E-1,1.4370997E-1,-6.4140625E-2,-4.4703234E-2,1.1045212E0,-6.3508965E-2,1.17887214E-1,5.0190824E-1,-6.469624E-2,-5.3750582E-2,7.615216E-2,-6.058798E-2,6.4854263E-3,-5.0166883E-2,5.0056953E-2,6.088117E-3,-5.4152895E-2,-3.758543E-2,1.14737466E-1,-3.2340776E-2,2.50801E-2,1.3119766E-1,-4.347154E-2,8.3567697E-4,-4.036383E-2,7.2336696E-2,3.646352E-3],"categories":[],"categories_nodes":[],"categories_segments":[],"categories_sizes":[],"default_left":[0,0,0,0,0,0,0,0,0,0,0,0,0,0,0,0,0,0,0,0,0,0,0,0,0,0,0,0,0,0,0,0,0,0,0,0,0,0,0,0,0,0,0,0,0,0,0,0,0,0,0,0,0,0,0,0,0,0,0,0,0,0,0],"id":17,"left_children":[1,3,5,7,9,11,13,15,17,-1,-1,19,21,23,25,-1,-1,27,29,31,33,35,-1,37,39,41,43,-1,-1,-1,-1,45,-1,47,49,51,53,55,-1,-1,57,59,-1,61,-1,-1,-1,-1,-1,-1,-1,-1,-1,-1,-1,-1,-1,-1,-1,-1,-1,-1,-1],"loss_changes":[3.2773392E0,5.526436E0,2.7799776E0,6.3862486E0,1.4201345E0,6.017467E0,6.435376E0,5.8456335E0,4.352735E0,0E0,0E0,2.1322436E0,5.686162E0,1.050256E1,4.9209995E0,0E0,0E0,3.5248642E0,3.6924205E0,1.1683625E1,5.233793E-1,5.6939926E0,0E0,4.0641613E0,4.6953936E0,1.4151985E1,3.9165063E0,0E0,0E0,0E0,0E0,4.2876325E0,0E0,6.0521984E-1,1.35419E0,3.804748E-1,3.356225E0,4.319197E0,0E0,0E0,5.6348248E0,7.23288E0,0E0,3.544525E-1,0E0,0E0,0E0,0E0,0E0,0E0,0E0,0E0,0E0,0E0,0E0,0E0,0E0,0E0,0E0,0E0,0E0,0E0,0E0],"parents":[2147483647,0,0,1,1,2,2,3,3,4,4,5,5,6,6,7,7,8,8,11,11,12,12,13,13,14,14,17,17,18,18,19,19,20,20,21,21,23,23,24,24,25,25,26,26,31,31,33,33,34,34,35,35,36,36,37,37,40,40,41,41,43,43],"right_children":[2,4,6,8,10,12,14,16,18,-1,-1,20,22,24,26,-1,-1,28,30,32,34,36,-1,38,40,42,44,-1,-1,-1,-1,46,-1,48,50,52,54,56,-1,-1,58,60,-1,62,-1,-1,-1,-1,-1,-1,-1,-1,-1,-1,-1,-1,-1,-1,-1,-1,-1,-1,-1],"split_conditions":[-1.535312E0,-1.5865912E0,-1.103119E0,-1.0008756E0,1.070317E0,1.0115521E0,-4.8179364E-1,1E0,1E0,1.0968105E-1,-7.9242914E-4,-2.7042654E-1,-1.1807847E0,-5.899357E-1,1.5072504E0,-6.686271E-2,9.446537E-2,1E0,-1.6549634E0,-3.0461264E-1,1E0,-1.2550292E0,-5.9063774E-2,-6.2336147E-1,-1.0804147E0,1.4217852E0,-6.9328296E-1,1.1194487E-1,-4.071004E-2,-5.739487E-2,8.0462635E-2,1E0,1.2879151E-1,1.2423755E0,-6.0089684E-1,-8.591005E-1,-1.6084375E0,-1.2954878E0,-6.4140625E-2,-4.4703234E-2,1E0,9.4317985E-1,1.17887214E-1,6.331427E-1,-6.469624E-2,-5.3750582E-2,7.615216E-2,-6.058798E-2,6.4854263E-3,-5.0166883E-2,5.0056953E-2,6.088117E-3,-5.4152895E-2,-3.758543E-2,1.14737466E-1,-3.2340776E-2,2.50801E-2,1.3119766E-1,-4.347154E-2,8.3567697E-4,-4.036383E-2,7.2336696E-2,3.646352E-3],"split_indices":[3,3,4,4,1,3,4,8,13,0,0,3,4,4,3,0,0,6,3,3,7,0,0,4,1,3,1,0,0,0,0,6,0,1,2,2,4,1,0,0,8,3,0,0,0,0,0,0,0,0,0,0,0,0,0,0,0,0,0,0,0,0,0],"split_type":[0,0,0,0,0,0,0,0,0,0,0,0,0,0,0,0,0,0,0,0,0,0,0,0,0,0,0,0,0,0,0,0,0,0,0,0,0,0,0,0,0,0,0,0,0,0,0,0,0,0,0,0,0,0,0,0,0,0,0,0,0,0,0],"sum_hessian":[5.494198E2,3.863217E1,5.1078763E2,3.0096361E1,8.5358095E0,7.823762E1,4.3255002E2,1.40230465E1,1.6073315E1,7.1962934E0,1.3395165E0,5.938194E1,1.8855677E1,1.0642137E2,3.2612866E2,1.22280445E1,1.7950021E0,9.324469E0,6.7488465E0,2.8469341E1,3.0912598E1,1.4226589E1,4.6290874E0,8.988372E1,1.6537647E1,3.032247E2,2.2903961E1,8.041539E0,1.2829298E0,4.814148E0,1.9346986E0,2.4633293E1,3.8360486E0,2.7198193E1,3.7144048E0,3.8377035E0,1.03888855E1,8.372087E1,6.1628532E0,1.6775601E0,1.4860087E1,2.9476224E2,8.462457E0,2.6946144E0,2.0209347E1,2.2667059E1,1.9662348E0,2.5975185E1,1.223006E0,2.4725173E0,1.2418876E0,1.2140105E0,2.623693E0,1.1968887E0,9.191997E0,1.5237381E1,6.848349E1,1.3225257E1,1.6348308E0,2.4415111E2,5.0611122E1,1.4503812E0,1.2442333E0],"tree_param":{"num_deleted":"0","num_feature":"15","num_nodes":"63","size_leaf_vector":"1"}},{"base_weights":[3.9975622E-4,-1.4284511E-2,6.334123E-1,1.5150468E-1,-7.3662624E-2,-4.0534463E-2,8.088142E-2,8.652801E-2,9.085295E-2,-4.9898311E-1,-3.26874E-2,-3.2976392E-1,1.7059308E-1,-5.838016E-1,1.3883847E-1,-1.762548E-2,-6.0790803E-2,7.638415E-2,-4.982784E-1,2.8568062E-1,-3.4947503E-1,-1.1998995E-2,-6.104814E-2,-4.64528E-2,7.002775E-2,-4.9097847E-2,6.1901575E-1,-6.23747E-2,-4.0954784E-3,9.9044345E-2,2.0462176E-2,-6.46012E-2,2.708822E-2,1.8287128E-2,-8.967201E-3,7.4044384E-2,-7.630439E-3],"categories":[],"categories_nodes":[],"categories_segments":[],"categories_sizes":[],"default_left":[0,0,0,0,0,0,0,0,0,0,0,0,0,0,0,0,0,0,0,0,0,0,0,0,0,0,0,0,0,0,0,0,0,0,0,0,0],"id":18,"left_children":[1,3,5,7,9,-1,-1,11,-1,13,15,17,19,21,23,25,-1,-1,27,29,31,-1,-1,-1,-1,33,35,-1,-1,-1,-1,-1,-1,-1,-1,-1,-1],"loss_changes":[5.2672057E0,5.463209E0,2.6685386E0,7.12147E0,7.1020784E0,0E0,0E0,4.812534E0,0E0,2.0190134E0,3.2264094E0,4.6515474E0,6.907284E0,3.203764E-1,2.0232875E0,7.346328E0,0E0,0E0,1.1614251E0,5.14886E0,4.048827E0,0E0,0E0,0E0,0E0,3.299807E0,1.5149112E0,0E0,0E0,0E0,0E0,0E0,0E0,0E0,0E0,0E0,0E0],"parents":[2147483647,0,0,1,1,2,2,3,3,4,4,7,7,9,9,10,10,11,11,12,12,13,13,14,14,15,15,18,18,19,19,20,20,25,25,26,26],"right_children":[2,4,6,8,10,-1,-1,12,-1,14,16,18,20,22,24,26,-1,-1,28,30,32,-1,-1,-1,-1,34,36,-1,-1,-1,-1,-1,-1,-1,-1,-1,-1],"split_conditions":[1.7026764E0,-8.740545E-1,-1.3131025E0,-8.8781804E-1,-7.079089E-1,-4.0534463E-2,8.088142E-2,-1.4840329E0,9.085295E-2,1E0,1.5756227E0,-1.7404287E0,1.0799242E0,-1.5865912E0,-3.5589176E-1,1.5072504E0,-6.0790803E-2,7.638415E-2,1E0,-1.1934512E0,1.4388782E0,-1.1998995E-2,-6.104814E-2,-4.64528E-2,7.002775E-2,-3.1958053E-1,1E0,-6.23747E-2,-4.0954784E-3,9.9044345E-2,2.0462176E-2,-6.46012E-2,2.708822E-2,1.8287128E-2,-8.967201E-3,7.4044384E-2,-7.630439E-3],"split_indices":[4,4,3,4,4,0,0,3,0,12,3,3,3,3,3,3,0,0,12,3,3,0,0,0,0,4,9,0,0,0,0,0,0,0,0,0,0],"split_type":[0,0,0,0,0,0,0,0,0,0,0,0,0,0,0,0,0,0,0,0,0,0,0,0,0,0,0,0,0,0,0,0,0,0,0,0,0],"sum_hessian":[5.646777E2,5.528308E2,1.1846823E1,1.45376E2,4.074548E2,1.5220513E0,1.0324771E1,1.349107E2,1.0465305E1,3.482242E1,3.726324E2,2.2175325E1,1.1273538E2,3.0809956E1,4.012462E0,3.6412848E2,8.503917E0,2.489095E0,1.968623E1,9.267722E1,2.0058157E1,1.9748976E0,2.8835058E1,2.0172155E0,1.9952464E0,3.4785513E2,1.6273342E1,1.5162445E1,4.523785E0,8.402578E0,8.427464E1,1.35430765E1,6.5150805E0,5.126391E1,2.9659122E2,1.3798695E1,2.4746475E0],"tree_param":{"num_deleted":"0","num_feature":"15","num_nodes":"37","size_leaf_vector":"1"}},{"base_weights":[-5.41425E-4,1.5540121E-2,-6.0727634E-2,-6.8389386E-2,1.3026534E-1,-1.1979596E-1,1.59895E-1,2.4764135E-1,-3.6941193E-2,-2.0779894E-1,8.556093E-2,3.723919E-1,-4.771934E-1,1.3017611E-1,5.356936E-1,-1.6635697E-1,3.9474127E-1,6.779717E-1,-2.3319924E-1,1.9800682E-1,-3.837906E-1,7.448213E-1,-6.308699E-3,2.5530279E-2,-5.88021E-1,1.7654637E-1,-6.381897E-2,3.7698814E-1,9.340435E-2,-6.3818686E-2,-7.338603E-2,5.811566E-1,-5.5018615E-2,2.5407353E-2,7.719528E-2,-5.459851E-2,-1.8812913E-2,4.2490553E-2,-5.283023E-3,-6.639715E-2,3.4844544E-2,8.810131E-2,-5.2359432E-2,-6.245612E-2,2.8964652E-2,-6.507342E-2,-8.647204E-3,1.2505012E-2,9.395665E-2,1.6779367E-2,9.510739E-2,-6.7819946E-2,2.8627708E-3,-4.0392723E-2,6.8439074E-2],"categories":[],"categories_nodes":[],"categories_segments":[],"categories_sizes":[],"default_left":[0,0,0,0,0,0,0,0,0,0,0,0,0,0,0,0,0,0,0,0,0,0,0,0,0,0,0,0,0,0,0,0,0,0,0,0,0,0,0,0,0,0,0,0,0,0,0,0,0,0,0,0,0,0,0],"id":19,"left_children":[1,3,-1,5,7,9,11,13,15,17,19,21,23,25,27,29,31,33,35,37,39,41,43,-1,45,47,-1,49,-1,-1,51,53,-1,-1,-1,-1,-1,-1,-1,-1,-1,-1,-1,-1,-1,-1,-1,-1,-1,-1,-1,-1,-1,-1,-1],"loss_changes":[5.659191E0,5.44974E0,0E0,3.85639E0,4.701233E0,4.851228E0,8.371785E0,4.68756E0,5.6230702E0,4.3769665E0,4.3477497E0,6.485401E0,1.4146924E0,3.718086E0,2.2023373E0,3.341235E0,4.4135265E0,2.2308826E-2,2.4775333E0,3.7763262E0,3.5105977E0,4.464732E0,4.531061E0,0E0,3.7882376E-1,3.6631074E0,0E0,3.511838E0,0E0,0E0,4.0701103E0,2.29989E0,0E0,0E0,0E0,0E0,0E0,0E0,0E0,0E0,0E0,0E0,0E0,0E0,0E0,0E0,0E0,0E0,0E0,0E0,0E0,0E0,0E0,0E0,0E0],"parents":[2147483647,0,0,1,1,3,3,4,4,5,5,6,6,7,7,8,8,9,9,10,10,11,11,12,12,13,13,14,14,15,15,16,16,17,17,18,18,19,19,20,20,21,21,22,22,24,24,25,25,27,27,30,30,31,31],"right_children":[2,4,-1,6,8,10,12,14,16,18,20,22,24,26,28,30,32,34,36,38,40,42,44,-1,46,48,-1,50,-1,-1,52,54,-1,-1,-1,-1,-1,-1,-1,-1,-1,-1,-1,-1,-1,-1,-1,-1,-1,-1,-1,-1,-1,-1,-1],"split_conditions":[1.6427066E0,8.1922346E-1,-6.0727634E-2,1.0457381E0,3.2783014E-1,8.473708E-1,3.8208288E-1,-2.3624043E-1,1E0,-1.6549634E0,4.132954E-1,1.4046922E0,1E0,-3.0461264E-1,1E0,-8.4947675E-1,6.3993466E-1,4.250975E-1,-1.3131025E0,-7.945496E-1,7.893424E-1,1E0,-8.7602067E-1,2.5530279E-2,1.5414366E0,-3.5589176E-1,-6.381897E-2,1.0960976E0,9.340435E-2,-6.3818686E-2,4.987606E-1,-1.5809104E0,-5.5018615E-2,2.5407353E-2,7.719528E-2,-5.459851E-2,-1.8812913E-2,4.2490553E-2,-5.283023E-3,-6.639715E-2,3.4844544E-2,8.810131E-2,-5.2359432E-2,-6.245612E-2,2.8964652E-2,-6.507342E-2,-8.647204E-3,1.2505012E-2,9.395665E-2,1.6779367E-2,9.510739E-2,-6.7819946E-2,2.8627708E-3,-4.0392723E-2,6.8439074E-2],"split_indices":[4,2,0,3,3,4,1,3,5,3,3,3,12,3,6,4,4,1,3,2,3,5,4,0,3,3,0,4,0,0,3,4,0,0,0,0,0,0,0,0,0,0,0,0,0,0,0,0,0,0,0,0,0,0,0],"split_type":[0,0,0,0,0,0,0,0,0,0,0,0,0,0,0,0,0,0,0,0,0,0,0,0,0,0,0,0,0,0,0,0,0,0,0,0,0,0,0,0,0,0,0,0,0,0,0,0,0,0,0,0,0,0,0],"sum_hessian":[5.780322E2,5.640563E2,1.397596E1,3.2598175E2,2.3807452E2,2.664549E2,5.9526836E1,1.395981E2,9.847643E1,1.8651465E2,7.994026E1,4.494964E1,1.4577197E1,1.00192406E2,3.940569E1,7.6235985E1,2.2240454E1,4.483196E0,1.8203145E2,6.495634E1,1.4983926E1,2.2175035E1,2.2774603E1,1.7443838E0,1.2832813E1,9.52164E1,4.976001E0,2.9570833E1,9.834855E0,1.1583757E1,6.465222E1,1.8897354E1,3.3430996E0,1.485656E0,2.99754E0,2.1526157E1,1.605053E2,3.3741222E1,3.1215118E1,1.0904633E1,4.0792933E0,2.0300735E1,1.8743E0,7.0133476E0,1.5761255E1,1.1142158E1,1.6906557E0,9.028683E1,4.9295726E0,2.2620352E1,6.950482E0,8.515842E0,5.6136383E1,1.5162463E0,1.7381107E1],"tree_param":{"num_deleted":"0","num_feature":"15","num_nodes":"55","size_leaf_vector":"1"}},{"base_weights":[1.5947902E-4,2.625308E-1,-2.0161897E-2,6.2180467E-2,8.708702E-1,-1.8366612E-1,9.354427E-3,-3.959534E-1,4.5119038E-1,1.0117761E-1,-6.207814E-4,-3.3453667E-1,2.7633238E-1,2.100388E-1,-5.7129323E-2,-6.522039E-2,8.9481615E-2,8.311709E-1,-1.2645403E-1,-1.3110751E-1,-5.126983E-1,5.554365E-1,-5.666433E-2,7.8063294E-2,8.682598E-1,-2.4944304E-2,-4.7973353E-1,1.04068935E-1,-3.9454006E-2,-5.6121152E-2,7.4527375E-2,-3.9265E-1,1.2015321E-1,-5.605408E-1,-1.2029218E-1,-3.5996014E-1,8.8013655E-1,1.3562512E-1,-6.275847E-2,-4.4246815E-2,1.0295775E0,-6.178125E-2,1.10043444E-1,4.84687E-1,-6.320914E-2,-5.218656E-2,7.349358E-2,-5.9215497E-2,6.6548414E-3,-4.883243E-2,4.8732024E-2,7.0452243E-3,-5.2453674E-2,-3.6266264E-2,1.0517825E-1,-3.0880675E-2,2.3506474E-2,1.2181485E-1,-4.2626508E-2,1.3015558E-2,-1.8284084E-2,3.3877757E-3,6.965535E-2],"categories":[],"categories_nodes":[],"categories_segments":[],"categories_sizes":[],"default_left":[0,0,0,0,0,0,0,0,0,0,0,0,0,0,0,0,0,0,0,0,0,0,0,0,0,0,0,0,0,0,0,0,0,0,0,0,0,0,0,0,0,0,0,0,0,0,0,0,0,0,0,0,0,0,0,0,0,0,0,0,0,0,0],"id":20,"left_children":[1,3,5,7,9,11,13,15,17,-1,-1,19,21,23,25,-1,-1,27,29,31,33,35,-1,37,39,41,43,-1,-1,-1,-1,45,-1,47,49,51,53,55,-1,-1,57,59,-1,61,-1,-1,-1,-1,-1,-1,-1,-1,-1,-1,-1,-1,-1,-1,-1,-1,-1,-1,-1],"loss_changes":[2.9261448E0,4.7542467E0,2.4599652E0,5.6596675E0,1.2047024E0,5.5015326E0,5.781596E0,5.43093E0,3.8583045E0,0E0,0E0,2.0763297E0,4.972566E0,9.29866E0,4.4168005E0,0E0,0E0,3.0933418E0,3.3186247E0,1.0564555E1,5.1805115E-1,4.8875585E0,0E0,3.7778642E0,4.242363E0,1.2654706E1,3.684174E0,0E0,0E0,0E0,0E0,4.0202665E0,0E0,5.8506584E-1,1.2805558E0,3.7244588E-1,2.8648558E0,3.8237329E0,0E0,0E0,4.979603E0,6.877042E0,0E0,3.3000255E-1,0E0,0E0,0E0,0E0,0E0,0E0,0E0,0E0,0E0,0E0,0E0,0E0,0E0,0E0,0E0,0E0,0E0,0E0,0E0],"parents":[2147483647,0,0,1,1,2,2,3,3,4,4,5,5,6,6,7,7,8,8,11,11,12,12,13,13,14,14,17,17,18,18,19,19,20,20,21,21,23,23,24,24,25,25,26,26,31,31,33,33,34,34,35,35,36,36,37,37,40,40,41,41,43,43],"right_children":[2,4,6,8,10,12,14,16,18,-1,-1,20,22,24,26,-1,-1,28,30,32,34,36,-1,38,40,42,44,-1,-1,-1,-1,46,-1,48,50,52,54,56,-1,-1,58,60,-1,62,-1,-1,-1,-1,-1,-1,-1,-1,-1,-1,-1,-1,-1,-1,-1,-1,-1,-1,-1],"split_conditions":[-1.535312E0,-1.5865912E0,-1.103119E0,-1.0008756E0,1.070317E0,1.0115521E0,-4.8179364E-1,1E0,1E0,1.0117761E-1,-6.207814E-4,-2.7042654E-1,-1.1807847E0,-5.899357E-1,1.5072504E0,-6.522039E-2,8.9481615E-2,1E0,-1.6549634E0,-3.0461264E-1,1E0,-1.2550292E0,-5.666433E-2,-6.2336147E-1,-1.0804147E0,1.4217852E0,-6.9328296E-1,1.04068935E-1,-3.9454006E-2,-5.6121152E-2,7.4527375E-2,1E0,1.2015321E-1,1.2423755E0,-6.0089684E-1,-8.591005E-1,-1.6084375E0,-1.2954878E0,-6.275847E-2,-4.4246815E-2,1E0,-5.501117E-1,1.10043444E-1,-1.4675463E0,-6.320914E-2,-5.218656E-2,7.349358E-2,-5.9215497E-2,6.6548414E-3,-4.883243E-2,4.8732024E-2,7.0452243E-3,-5.2453674E-2,-3.6266264E-2,1.0517825E-1,-3.0880675E-2,2.3506474E-2,1.2181485E-1,-4.2626508E-2,1.3015558E-2,-1.8284084E-2,3.3877757E-3,6.965535E-2],"split_indices":[3,3,4,4,1,3,4,8,13,0,0,3,4,4,3,0,0,6,3,3,7,0,0,4,1,3,1,0,0,0,0,6,0,1,2,2,4,1,0,0,8,0,0,1,0,0,0,0,0,0,0,0,0,0,0,0,0,0,0,0,0,0,0],"split_type":[0,0,0,0,0,0,0,0,0,0,0,0,0,0,0,0,0,0,0,0,0,0,0,0,0,0,0,0,0,0,0,0,0,0,0,0,0,0,0,0,0,0,0,0,0,0,0,0,0,0,0,0,0,0,0,0,0,0,0,0,0,0,0],"sum_hessian":[5.468227E2,3.8451576E1,5.083711E2,2.9754461E1,8.697114E0,7.69405E1,4.314306E2,1.3655105E1,1.6099356E1,7.3609705E0,1.336144E0,5.8143353E1,1.8797146E1,1.0682252E2,3.246081E2,1.18060255E1,1.8490789E0,9.446471E0,6.652885E0,2.7957132E1,3.0186222E1,1.4377832E1,4.4193125E0,8.9913216E1,1.6909302E1,3.0261996E2,2.198814E1,8.196366E0,1.2501054E0,4.676686E0,1.9761993E0,2.3960104E1,3.9970267E0,2.6523932E1,3.6622906E0,3.7361794E0,1.0641653E1,8.387877E1,6.034443E0,1.6620547E0,1.5247247E1,2.9394342E2,8.676529E0,2.7021801E0,1.9285961E1,2.1978647E1,1.9814577E0,2.530396E1,1.2199708E0,2.4030693E0,1.2592213E0,1.1916387E0,2.5445404E0,1.1563402E0,9.485313E0,1.4951152E1,6.892762E1,1.3643335E1,1.6039113E0,1.13661285E2,1.8028214E2,1.23476E0,1.46742E0],"tree_param":{"num_deleted":"0","num_feature":"15","num_nodes":"63","size_leaf_vector":"1"}},{"base_weights":[4.747701E-4,-1.3133329E-2,5.9433234E-1,1.4336143E-1,-6.92819E-2,-3.997381E-2,7.644084E-2,8.0611415E-2,8.7344766E-2,-4.867439E-1,-3.0053088E-2,-3.197346E-1,1.594747E-1,-5.714161E-1,1.348503E-1,-1.5578337E-2,-5.9658624E-2,7.26627E-2,-4.861046E-1,9.3622826E-2,8.814312E-2,-6.2947735E-2,-2.7745157E-1,-4.5629125E-2,6.7710094E-2,-4.5050856E-2,5.7640123E-1,-6.1228562E-2,-4.0777824E-3,3.6379904E-2,-1.1907353E-2,-5.384882E-2,5.0983496E-2,1.0191091E-1,-5.3263656E-3,6.8029314E-2,-1.7984083E-2],"categories":[],"categories_nodes":[],"categories_segments":[],"categories_sizes":[],"default_left":[0,0,0,0,0,0,0,0,0,0,0,0,0,0,0,0,0,0,0,0,0,0,0,0,0,0,0,0,0,0,0,0,0,0,0,0,0],"id":21,"left_children":[1,3,5,7,9,-1,-1,11,-1,13,15,17,19,21,23,25,-1,-1,27,-1,29,-1,31,-1,-1,33,35,-1,-1,-1,-1,-1,-1,-1,-1,-1,-1],"loss_changes":[4.5490985E0,4.8457685E0,2.4375334E0,6.6019683E0,6.6293087E0,0E0,0E0,4.3201895E0,0E0,1.9077396E0,3.0405731E0,4.284997E0,6.21354E0,3.5110664E-1,1.904984E0,6.3710847E0,0E0,0E0,1.1037216E0,0E0,6.0512104E0,0E0,1.6861453E0,0E0,0E0,3.090086E0,1.4831295E0,0E0,0E0,0E0,0E0,0E0,0E0,0E0,0E0,0E0,0E0],"parents":[2147483647,0,0,1,1,2,2,3,3,4,4,7,7,9,9,10,10,11,11,12,12,13,13,14,14,15,15,18,18,20,20,22,22,25,25,26,26],"right_children":[2,4,6,8,10,-1,-1,12,-1,14,16,18,20,22,24,26,-1,-1,28,-1,30,-1,32,-1,-1,34,36,-1,-1,-1,-1,-1,-1,-1,-1,-1,-1],"split_conditions":[1.7026764E0,-8.740545E-1,-1.3131025E0,-8.8781804E-1,-7.079089E-1,-3.997381E-2,7.644084E-2,-1.4840329E0,8.7344766E-2,1E0,1.5756227E0,-1.7404287E0,-1.1934512E0,-7.5214887E-1,-3.5589176E-1,1.5072504E0,-5.9658624E-2,7.26627E-2,1E0,9.3622826E-2,2.8927669E-2,-6.2947735E-2,8.8489896E-1,-4.5629125E-2,6.7710094E-2,-7.049596E-1,1.1563462E0,-6.1228562E-2,-4.0777824E-3,3.6379904E-2,-1.1907353E-2,-5.384882E-2,5.0983496E-2,1.0191091E-1,-5.3263656E-3,6.8029314E-2,-1.7984083E-2],"split_indices":[4,4,3,4,4,0,0,3,0,12,3,3,3,4,3,3,0,0,12,0,0,0,0,0,0,4,1,0,0,0,0,0,0,0,0,0,0],"split_type":[0,0,0,0,0,0,0,0,0,0,0,0,0,0,0,0,0,0,0,0,0,0,0,0,0,0,0,0,0,0,0,0,0,0,0,0,0],"sum_hessian":[5.609527E2,5.493425E2,1.1610164E1,1.4464401E2,4.0469852E2,1.4989083E0,1.0111256E1,1.342185E2,1.0425502E1,3.378287E1,3.7091565E2,2.1585642E1,1.1263287E2,2.980379E1,3.979081E0,3.6267685E2,8.238787E0,2.4992719E0,1.908637E1,8.453613E0,1.0417926E2,2.3935019E1,5.8687706E0,1.9795607E0,1.9995202E0,3.463569E2,1.631996E1,1.4580226E1,4.5061436E0,4.4382507E1,5.9796753E1,4.6447535E0,1.2240174E0,1.7099106E0,3.4464697E2,1.4437039E1,1.8829198E0],"tree_param":{"num_deleted":"0","num_feature":"15","num_nodes":"37","size_leaf_vector":"1"}},{"base_weights":[-6.0718507E-4,1.4546971E-2,-5.952037E-2,-6.473525E-2,1.22222945E-1,-1.13879986E-1,1.533703E-1,2.152011E-1,-6.8891756E-2,-1.9713192E-1,7.8199916E-2,3.277312E-1,-5.579286E-1,2.1642935E-2,3.0080098E-1,-3.9933223E-1,8.173012E-2,6.391188E-1,-2.2142662E-1,1.8435135E-1,-3.7304473E-1,6.31125E-1,-1.516103E-2,-6.257125E-2,-8.281069E-3,2.2547217E-1,-6.6019885E-2,9.09374E-2,2.3858584E-1,-5.644733E-1,5.201669E-1,3.5244712E-1,-1.6996832E-1,2.3600241E-2,7.305259E-2,-6.374174E-2,-1.8814614E-2,5.6874692E-2,4.867041E-3,-6.5025255E-2,3.2888588E-2,7.653236E-2,-5.37106E-2,-6.037529E-2,2.489185E-2,-8.216713E-3,4.7684643E-2,-3.2350685E-2,2.9534224E-2,-6.817695E-2,-1.1012988E-2,7.98243E-2,-4.2469106E-3,-7.883306E-3,7.027261E-2,-4.8042074E-2,9.867945E-3],"categories":[],"categories_nodes":[],"categories_segments":[],"categories_sizes":[],"default_left":[0,0,0,0,0,0,0,0,0,0,0,0,0,0,0,0,0,0,0,0,0,0,0,0,0,0,0,0,0,0,0,0,0,0,0,0,0,0,0,0,0,0,0,0,0,0,0,0,0,0,0,0,0,0,0,0,0],"id":22,"left_children":[1,3,-1,5,7,9,11,13,15,17,19,21,23,25,27,29,31,33,35,37,39,41,43,-1,-1,45,-1,-1,47,49,51,53,55,-1,-1,-1,-1,-1,-1,-1,-1,-1,-1,-1,-1,-1,-1,-1,-1,-1,-1,-1,-1,-1,-1,-1,-1],"loss_changes":[5.1927705E0,4.805687E0,0E0,3.493945E0,4.255961E0,4.2573237E0,7.6327047E0,2.6577768E0,3.9581847E0,3.9070349E0,3.9450977E0,5.0938606E0,3.4095383E-1,7.151432E0,4.0015955E0,4.069251E0,3.8080013E0,2.9883623E-2,2.383873E0,3.4240887E0,3.27699E0,4.4798784E0,3.8682032E0,0E0,0E0,3.0965521E0,0E0,0E0,3.3636155E0,1.0738297E0,7.0762694E-1,4.1081667E0,2.4810214E0,0E0,0E0,0E0,0E0,0E0,0E0,0E0,0E0,0E0,0E0,0E0,0E0,0E0,0E0,0E0,0E0,0E0,0E0,0E0,0E0,0E0,0E0,0E0,0E0],"parents":[2147483647,0,0,1,1,3,3,4,4,5,5,6,6,7,7,8,8,9,9,10,10,11,11,12,12,13,13,14,14,15,15,16,16,17,17,18,18,19,19,20,20,21,21,22,22,25,25,28,28,29,29,30,30,31,31,32,32],"right_children":[2,4,-1,6,8,10,12,14,16,18,20,22,24,26,28,30,32,34,36,38,40,42,44,-1,-1,46,-1,-1,48,50,52,54,56,-1,-1,-1,-1,-1,-1,-1,-1,-1,-1,-1,-1,-1,-1,-1,-1,-1,-1,-1,-1,-1,-1,-1,-1],"split_conditions":[1.6427066E0,8.1922346E-1,-5.952037E-2,1.0457381E0,6.52598E-1,8.473708E-1,4.250975E-1,-1.1079859E0,9.4317985E-1,-1.6549634E0,4.132954E-1,1.4046922E0,1.5414366E0,-1.3643816E0,-1.0054276E0,1E0,1.3363199E0,4.250975E-1,-1.4816164E0,-9.8820233E-1,7.893424E-1,1E0,-8.7602067E-1,-6.257125E-2,-8.281069E-3,-1.0490481E0,-6.6019885E-2,9.09374E-2,-8.5159016E-1,4.3053225E-1,1.0774271E0,8.552438E-1,1.4901574E0,2.3600241E-2,7.305259E-2,-6.374174E-2,-1.8814614E-2,5.6874692E-2,4.867041E-3,-6.5025255E-2,3.2888588E-2,7.653236E-2,-5.37106E-2,-6.037529E-2,2.489185E-2,-8.216713E-3,4.7684643E-2,-3.2350685E-2,2.9534224E-2,-6.817695E-2,-1.1012988E-2,7.98243E-2,-4.2469106E-3,-7.883306E-3,7.027261E-2,-4.8042074E-2,9.867945E-3],"split_indices":[4,2,0,3,3,4,1,3,3,3,3,3,3,3,3,6,3,1,4,2,3,5,4,0,0,4,0,0,3,4,2,1,3,0,0,0,0,0,0,0,0,0,0,0,0,0,0,0,0,0,0,0,0,0,0,0,0],"split_type":[0,0,0,0,0,0,0,0,0,0,0,0,0,0,0,0,0,0,0,0,0,0,0,0,0,0,0,0,0,0,0,0,0,0,0,0,0,0,0,0,0,0,0,0,0,0,0,0,0,0,0,0,0,0,0,0,0],"sum_hessian":[5.743343E2,5.6101166E2,1.3322661E1,3.2333655E2,2.376751E2,2.6426807E2,5.9068466E1,1.598038E2,7.787129E1,1.8434312E2,7.9924934E1,4.7872677E1,1.119579E1,4.9385754E1,1.1041805E2,2.3864702E1,5.4006588E1,4.48987E0,1.7985326E2,6.518272E1,1.4742217E1,2.4953247E1,2.2919428E1,9.5205555E0,1.6752354E0,3.8535347E1,1.0850407E1,8.978267E0,1.0143979E2,2.0558521E1,3.3061807E0,2.5827385E1,2.8179201E1,1.4919733E0,2.9978967E0,1.19782095E1,1.6787505E2,1.6172596E1,4.9010124E1,1.0621267E1,4.1209493E0,2.2691486E1,2.2617605E0,6.699977E0,1.6219452E1,1.763106E1,2.0904287E1,8.872288E0,9.25675E1,1.5942217E1,4.6163044E0,1.9323727E0,1.373808E0,1.1922623E1,1.3904762E1,1.2706794E1,1.5472408E1],"tree_param":{"num_deleted":"0","num_feature":"15","num_nodes":"57","size_leaf_vector":"1"}},{"base_weights":[1.5161872E-4,1.5559678E-1,-3.0873971E-2,8.5544415E-2,8.714512E-2,-3.883587E-1,-1.8874598E-3,1.5957262E-1,-5.9113037E-2,-2.874527E-2,-6.303137E-2,5.04031E-1,-2.5142875E-2,9.97708E-2,9.206353E-2,-3.618734E-1,8.180366E-2,8.013039E-1,-5.2781958E-2,-5.411071E-1,-6.729712E-4,1.8768317E-1,-3.4716472E-1,3.3783E-2,-5.759659E-2,9.520481E-1,-1.2064265E-2,-6.32358E-2,-6.591052E-2,-5.2279856E-2,1.7176579E-1,3.9186967E-3,1.0690861E-1,9.264208E-2,-6.595431E-2,3.961643E-2,1.01707004E-1,-4.074191E-2,2.3837544E-2,-1.3918302E-2,6.514638E-3,3.8004294E-2,-1.8596146E-2],"categories":[],"categories_nodes":[],"categories_segments":[],"categories_sizes":[],"default_left":[0,0,0,0,0,0,0,0,0,0,0,0,0,0,0,0,0,0,0,0,0,0,0,0,0,0,0,0,0,0,0,0,0,0,0,0,0,0,0,0,0,0,0],"id":23,"left_children":[1,3,5,7,-1,9,11,13,-1,15,-1,17,19,21,-1,23,-1,25,-1,27,29,31,33,-1,-1,35,-1,-1,37,39,41,-1,-1,-1,-1,-1,-1,-1,-1,-1,-1,-1,-1],"loss_changes":[2.6300623E0,4.4755926E0,4.7100453E0,4.289949E0,0E0,2.9482565E0,4.9719768E0,3.3800855E0,0E0,4.4596066E0,0E0,6.1196847E0,5.0996966E0,2.8881748E0,0E0,1.885237E0,0E0,2.1738377E0,0E0,7.513585E-1,3.449855E0,7.9012637E0,5.4489937E0,0E0,0E0,6.1374664E-2,0E0,0E0,5.1928335E-1,3.0537553E0,6.7238255E0,0E0,0E0,0E0,0E0,0E0,0E0,0E0,0E0,0E0,0E0,0E0,0E0],"parents":[2147483647,0,0,1,1,2,2,3,3,5,5,6,6,7,7,9,9,11,11,12,12,13,13,15,15,17,17,19,19,20,20,21,21,22,22,25,25,28,28,29,29,30,30],"right_children":[2,4,6,8,-1,10,12,14,-1,16,-1,18,20,22,-1,24,-1,26,-1,28,30,32,34,-1,-1,36,-1,-1,38,40,42,-1,-1,-1,-1,-1,-1,-1,-1,-1,-1,-1,-1],"split_conditions":[-1.1763581E0,1.626977E0,-9.370554E-1,1.368419E0,8.714512E-2,-5.1325315E-1,-8.00311E-1,-1.1934512E0,-5.9113037E-2,1E0,-6.303137E-2,1E0,-6.293805E-1,5.239277E-1,9.206353E-2,-1.2046779E0,8.180366E-2,6.831853E-1,-5.2781958E-2,1E0,1E0,2.447245E-1,-1.7233356E0,3.3783E-2,-5.759659E-2,-1.0527532E0,-1.2064265E-2,-6.32358E-2,-7.8321797E-1,1.2576821E-1,8.473708E-1,3.9186967E-3,1.0690861E-1,9.264208E-2,-6.595431E-2,3.961643E-2,1.01707004E-1,-4.074191E-2,2.3837544E-2,-1.3918302E-2,6.514638E-3,3.8004294E-2,-1.8596146E-2],"split_indices":[3,4,3,4,0,4,3,3,0,6,0,5,3,4,0,0,0,1,0,12,13,4,3,0,0,2,0,0,3,4,4,0,0,0,0,0,0,0,0,0,0,0,0],"split_type":[0,0,0,0,0,0,0,0,0,0,0,0,0,0,0,0,0,0,0,0,0,0,0,0,0,0,0,0,0,0,0,0,0,0,0,0,0,0,0,0,0,0,0],"sum_hessian":[5.4334576E2,8.973553E1,4.5361023E2,8.27566E1,6.9789276E0,3.3092255E1,4.2051797E2,7.5284645E1,7.4719563E0,1.3759926E1,1.933233E1,1.7571814E1,4.0294617E2,7.084868E1,4.435963E0,1.0286008E1,3.4739175E0,1.3815145E1,3.7566695E0,1.7288723E1,3.8565744E2,5.9688084E1,1.1160599E1,2.27449E0,8.011518E0,1.1845654E1,1.9694909E0,1.4226177E1,3.0625465E0,2.9736105E2,8.829638E1,5.197581E1,7.7122736E0,1.8110672E0,9.349531E0,1.9832534E0,9.8624E0,1.2833134E0,1.7792332E0,1.7078421E2,1.2657684E2,5.576583E1,3.253055E1],"tree_param":{"num_deleted":"0","num_feature":"15","num_nodes":"43","size_leaf_vector":"1"}},{"base_weights":[7.54618E-4,-1.2008902E-2,5.6848496E-1,1.3525048E-1,-6.497915E-2,-3.846E-2,7.2973795E-2,7.549847E-2,8.321023E-2,-4.7650874E-1,-2.7271573E-2,1.4874634E-1,-3.377634E-1,-5.60451E-1,1.2592387E-1,-1.13090314E-1,6.6264994E-2,-1.0506203E-1,4.6183822E-1,-4.9287346E-1,7.456992E-2,-6.1677683E-2,-2.535389E-1,-4.493867E-2,6.493265E-2,2.7623897E-2,-3.7047762E-1,5.108396E-1,-5.377885E-2,-3.0636195E-2,6.706079E-2,6.952328E-2,-2.1772068E-2,-6.302467E-2,-6.345905E-3,-5.200953E-2,3.1271834E-2,4.759155E-2,-1.0262555E-2,-6.958582E-2,-1.5335405E-2,3.384974E-2,1.2418518E-1,-2.5427291E-2,1.1068496E-2],"categories":[],"categories_nodes":[],"categories_segments":[],"categories_sizes":[],"default_left":[0,0,0,0,0,0,0,0,0,0,0,0,0,0,0,0,0,0,0,0,0,0,0,0,0,0,0,0,0,0,0,0,0,0,0,0,0,0,0,0,0,0,0,0,0],"id":24,"left_children":[1,3,5,7,9,-1,-1,11,-1,13,15,17,19,21,23,25,27,29,31,33,-1,-1,35,-1,-1,37,39,41,43,-1,-1,-1,-1,-1,-1,-1,-1,-1,-1,-1,-1,-1,-1,-1,-1],"loss_changes":[4.0521984E0,4.275405E0,2.1703417E0,5.9758034E0,6.239906E0,0E0,0E0,4.126846E0,0E0,1.7778902E0,2.9790711E0,9.194234E0,3.8264155E0,3.5905743E-1,1.7809911E0,7.0158453E0,9.51426E0,1.025754E1,8.3533E0,1.0575895E0,0E0,0E0,1.1168034E0,0E0,0E0,7.4053288E0,4.7283745E0,4.3530474E0,4.6732354E0,0E0,0E0,0E0,0E0,0E0,0E0,0E0,0E0,0E0,0E0,0E0,0E0,0E0,0E0,0E0,0E0],"parents":[2147483647,0,0,1,1,2,2,3,3,4,4,7,7,9,9,10,10,11,11,12,12,13,13,14,14,15,15,16,16,17,17,18,18,19,19,22,22,25,25,26,26,27,27,28,28],"right_children":[2,4,6,8,10,-1,-1,12,-1,14,16,18,20,22,24,26,28,30,32,34,-1,-1,36,-1,-1,38,40,42,44,-1,-1,-1,-1,-1,-1,-1,-1,-1,-1,-1,-1,-1,-1,-1,-1],"split_conditions":[1.7026764E0,-8.740545E-1,-1.3131025E0,-8.8781804E-1,-7.079089E-1,-3.846E-2,7.2973795E-2,1.0799242E0,8.321023E-2,1E0,5.239277E-1,-6.5309964E-2,-1.0490481E0,9.1007453E-1,-3.5589176E-1,9.332559E-2,8.237762E-1,1E0,1E0,1.4388782E0,7.456992E-2,-6.1677683E-2,-8.386625E-1,-4.493867E-2,6.493265E-2,-5.2682227E-1,2.8208268E-1,7.588909E-1,-9.107809E-2,-3.0636195E-2,6.706079E-2,6.952328E-2,-2.1772068E-2,-6.302467E-2,-6.345905E-3,-5.200953E-2,3.1271834E-2,4.759155E-2,-1.0262555E-2,-6.958582E-2,-1.5335405E-2,3.384974E-2,1.2418518E-1,-2.5427291E-2,1.1068496E-2],"split_indices":[4,4,3,4,4,0,0,3,0,12,4,3,4,0,3,4,4,5,5,3,0,0,4,0,0,3,4,4,1,0,0,0,0,0,0,0,0,0,0,0,0,0,0,0,0],"split_type":[0,0,0,0,0,0,0,0,0,0,0,0,0,0,0,0,0,0,0,0,0,0,0,0,0,0,0,0,0,0,0,0,0,0,0,0,0,0,0,0,0,0,0,0,0],"sum_hessian":[5.5727203E2,5.4597644E2,1.12956085E1,1.4402577E2,4.0195068E2,1.4341283E0,9.861481E0,1.336723E2,1.0353476E1,3.2761726E1,3.6918896E2,1.1409058E2,1.9581715E1,2.8816198E1,3.9455266E0,1.9242873E2,1.7676022E2,6.3377758E1,5.071283E1,1.760627E1,1.975445E0,2.3494724E1,5.3214746E0,1.9469275E0,1.9985992E0,1.2498941E2,6.7439316E1,3.6888947E1,1.3987128E2,5.0799446E1,1.257831E1,3.7731033E1,1.2981793E1,1.2984676E1,4.6215944E0,3.6736739E0,1.6478009E0,2.754193E1,9.744748E1,2.6108423E1,4.133089E1,3.1035194E1,5.8537536E0,6.2785206E1,7.7086075E1],"tree_param":{"num_deleted":"0","num_feature":"15","num_nodes":"45","size_leaf_vector":"1"}},{"base_weights":[-8.57151E-4,1.3246007E-2,-5.819402E-2,-6.1882343E-2,1.1466674E-1,-1.0957587E-1,1.5019074E-1,2.2295812E-1,-4.074608E-2,-1.8815252E-1,7.00196E-2,3.4342796E-1,-4.516241E-1,1.7745973E-1,9.114275E-2,-1.6332476E-1,3.677135E-1,6.18282E-1,-2.1179469E-1,2.1894002E-1,-2.339836E-1,6.669086E-1,2.7503616E-3,2.3140019E-2,-5.6154925E-1,1.4429459E-1,8.586763E-2,-6.2260002E-2,-7.5782165E-2,5.4494923E-1,-5.41179E-2,2.3176825E-2,7.0478186E-2,-6.329825E-2,-1.7817244E-2,4.5528125E-2,-1.0881034E-2,-6.4715266E-2,5.5173216E-3,7.882806E-2,-4.9817447E-2,-5.872907E-2,2.6316304E-2,-6.250975E-2,-7.4385903E-3,2.5734654E-2,-1.836654E-2,-6.758574E-2,2.5428962E-3,-3.8697265E-2,6.3926935E-2],"categories":[],"categories_nodes":[],"categories_segments":[],"categories_sizes":[],"default_left":[0,0,0,0,0,0,0,0,0,0,0,0,0,0,0,0,0,0,0,0,0,0,0,0,0,0,0,0,0,0,0,0,0,0,0,0,0,0,0,0,0,0,0,0,0,0,0,0,0,0,0],"id":25,"left_children":[1,3,-1,5,7,9,11,13,15,17,19,21,23,25,-1,27,29,31,33,35,37,39,41,-1,43,45,-1,-1,47,49,-1,-1,-1,-1,-1,-1,-1,-1,-1,-1,-1,-1,-1,-1,-1,-1,-1,-1,-1,-1,-1],"loss_changes":[4.6926727E0,4.267275E0,0E0,3.2716808E0,4.019189E0,3.7292244E0,7.0758767E0,4.2418084E0,5.0014834E0,3.628611E0,3.7125735E0,5.025093E0,1.2483737E0,2.8833346E0,0E0,3.0327961E0,4.014249E0,1.9875765E-2,2.4216824E0,4.294344E0,3.2703211E0,3.70082E0,3.7225945E0,0E0,3.5976934E-1,4.797858E0,0E0,0E0,3.9940212E0,1.9894843E0,0E0,0E0,0E0,0E0,0E0,0E0,0E0,0E0,0E0,0E0,0E0,0E0,0E0,0E0,0E0,0E0,0E0,0E0,0E0,0E0,0E0],"parents":[2147483647,0,0,1,1,3,3,4,4,5,5,6,6,7,7,8,8,9,9,10,10,11,11,12,12,13,13,15,15,16,16,17,17,18,18,19,19,20,20,21,21,22,22,24,24,25,25,28,28,29,29],"right_children":[2,4,-1,6,8,10,12,14,16,18,20,22,24,26,-1,28,30,32,34,36,38,40,42,-1,44,46,-1,-1,48,50,-1,-1,-1,-1,-1,-1,-1,-1,-1,-1,-1,-1,-1,-1,-1,-1,-1,-1,-1,-1,-1],"split_conditions":[1.6427066E0,8.1922346E-1,-5.819402E-2,1.0457381E0,3.2783014E-1,8.473708E-1,3.8208288E-1,2.7655098E-1,1E0,-1.6549634E0,1.4165914E0,1.4046922E0,1E0,1.3782501E0,9.114275E-2,-8.4947675E-1,6.3993466E-1,4.250975E-1,-1.5011259E0,-3.5589176E-1,-3.5589176E-1,1E0,-8.7602067E-1,2.3140019E-2,1.5414366E0,3.9219096E-1,8.586763E-2,-6.2260002E-2,4.987606E-1,-1.5809104E0,-5.41179E-2,2.3176825E-2,7.0478186E-2,-6.329825E-2,-1.7817244E-2,4.5528125E-2,-1.0881034E-2,-6.4715266E-2,5.5173216E-3,7.882806E-2,-4.9817447E-2,-5.872907E-2,2.6316304E-2,-6.250975E-2,-7.4385903E-3,2.5734654E-2,-1.836654E-2,-6.758574E-2,2.5428962E-3,-3.8697265E-2,6.3926935E-2],"split_indices":[4,2,0,3,3,4,1,3,5,3,4,3,12,4,0,4,4,1,3,3,3,5,4,0,3,4,0,0,3,4,0,0,0,0,0,0,0,0,0,0,0,0,0,0,0,0,0,0,0,0,0],"split_type":[0,0,0,0,0,0,0,0,0,0,0,0,0,0,0,0,0,0,0,0,0,0,0,0,0,0,0,0,0,0,0,0,0,0,0,0,0,0,0,0,0,0,0,0,0,0,0,0,0,0,0],"sum_hessian":[5.7067834E2,5.5811E2,1.2568387E1,3.2083688E2,2.3727306E2,2.6232535E2,5.851154E1,1.3957962E2,9.769344E1,1.8245149E2,7.987387E1,4.461532E1,1.3896222E1,1.3210692E2,7.4726954E0,7.5604645E1,2.20888E1,4.480201E0,1.7797128E2,5.37993E1,2.6074564E1,2.2394073E1,2.2221247E1,1.773214E0,1.2123008E1,1.27129425E2,4.9775E0,1.1125404E1,6.447924E1,1.8819407E1,3.2693937E0,1.4921441E0,2.9880564E0,1.1838869E1,1.6613242E2,3.1032566E1,2.2766735E1,1.0225513E1,1.5849051E1,2.057418E1,1.8198932E0,6.4198856E0,1.580136E1,1.0473632E1,1.6493759E0,9.470033E1,3.2429092E1,8.486362E0,5.5992878E1,1.44449E0,1.7374918E1],"tree_param":{"num_deleted":"0","num_feature":"15","num_nodes":"51","size_leaf_vector":"1"}},{"base_weights":[1.2696694E-4,1.7195012E-2,-2.6233086E-1,-1.0181032E-2,5.427508E-1,9.065997E-2,-4.5088404E-1,1.3581787E-2,-6.455893E-2,-3.3935165E-1,8.331641E-1,-6.234858E-2,-3.3309687E-2,6.0714737E-2,-1.8111667E-1,-5.5734355E-2,7.765179E-3,9.558731E-1,-4.459103E-2,6.450315E-2,-4.1989532E-1,-1.9259207E-1,1.3665378E-1,1.0593396E-1,-3.431956E-1,4.285174E-1,1.0258719E0,3.477731E-3,-5.3071637E-2,-1.4723436E-3,-3.35543E-2,4.999287E-2,4.385485E-3,-3.4782253E-2,3.809964E-2,-4.14396E-2,2.3289744E-2,6.8044856E-2,-2.0981939E-3,3.396779E-2,1.0711203E-1],"categories":[],"categories_nodes":[],"categories_segments":[],"categories_sizes":[],"default_left":[0,0,0,0,0,0,0,0,0,0,0,0,0,0,0,0,0,0,0,0,0,0,0,0,0,0,0,0,0,0,0,0,0,0,0,0,0,0,0,0,0],"id":26,"left_children":[1,3,5,7,9,-1,11,13,-1,15,17,-1,19,21,23,-1,-1,25,-1,-1,27,29,31,33,35,37,39,-1,-1,-1,-1,-1,-1,-1,-1,-1,-1,-1,-1,-1,-1],"loss_changes":[2.4293797E0,7.3316307E0,7.7073245E0,7.3313055E0,6.7457523E0,0E0,2.0825353E0,4.3099375E0,0E0,6.75911E-1,3.4506712E0,0E0,2.785987E0,7.295705E0,4.295908E0,0E0,0E0,2.2119331E-1,0E0,0E0,3.5681164E-1,2.2218537E0,9.7992525E0,4.3515987E0,2.50635E0,4.4629967E-1,1.0456848E-1,0E0,0E0,0E0,0E0,0E0,0E0,0E0,0E0,0E0,0E0,0E0,0E0,0E0,0E0],"parents":[2147483647,0,0,1,1,2,2,3,3,4,4,6,6,7,7,9,9,10,10,12,12,13,13,14,14,17,17,20,20,21,21,22,22,23,23,24,24,25,25,26,26],"right_children":[2,4,6,8,10,-1,12,14,-1,16,18,-1,20,22,24,-1,-1,26,-1,-1,28,30,32,34,36,38,40,-1,-1,-1,-1,-1,-1,-1,-1,-1,-1,-1,-1,-1,-1],"split_conditions":[1.5072504E0,1.3875991E0,-1.0490481E0,1.3021338E0,-1.2298536E0,9.065997E-2,1.5927156E0,1E0,-6.455893E-2,1E0,1E0,-6.234858E-2,-6.502683E-1,-8.70122E-1,-7.924563E-1,-5.5734355E-2,7.765179E-3,-1.5965903E0,-4.459103E-2,6.450315E-2,-8.270436E-1,-1.2967917E0,-3.4907383E-1,-1.2859775E0,1.4647326E0,-1.854678E0,-1.0527532E0,3.477731E-3,-5.3071637E-2,-1.4723436E-3,-3.35543E-2,4.999287E-2,4.385485E-3,-3.4782253E-2,3.809964E-2,-4.14396E-2,2.3289744E-2,6.8044856E-2,-2.0981939E-3,3.396779E-2,1.0711203E-1],"split_indices":[3,3,4,3,0,0,3,10,0,9,5,0,1,4,4,0,0,1,0,0,0,4,4,4,2,1,2,0,0,0,0,0,0,0,0,0,0,0,0,0,0],"split_type":[0,0,0,0,0,0,0,0,0,0,0,0,0,0,0,0,0,0,0,0,0,0,0,0,0,0,0,0,0,0,0,0,0,0,0,0,0,0,0,0,0],"sum_hessian":[5.403086E2,5.081944E2,3.2114193E1,4.839654E2,2.4228985E1,3.9316764E0,2.8182518E1,4.67462E2,1.6503387E1,5.9593925E0,1.8269592E1,1.9591415E1,8.591102E0,3.7690768E2,9.055432E1,3.692542E0,2.2668502E0,1.6900879E1,1.3687146E0,2.87602E0,5.7150817E0,8.657773E1,2.9032996E2,3.2803654E1,5.7750664E1,2.8150086E0,1.408587E1,1.2544702E0,4.460612E0,3.906882E1,4.7508907E1,5.8181767E1,2.321482E2,1.2280543E1,2.0523111E1,5.1648064E1,6.102601E0,1.474694E0,1.3403146E0,1.397635E0,1.2688235E1],"tree_param":{"num_deleted":"0","num_feature":"15","num_nodes":"41","size_leaf_vector":"1"}},{"base_weights":[9.2050695E-4,8.9454524E-2,-6.2271343E-3,-1.83105E-2,5.3913045E-1,1.03651196E-1,-6.111583E-2,-3.800243E-2,6.9819935E-2,4.275563E-2,8.020649E-2,-4.6275458E-1,-2.5500782E-2,-1.4280349E-1,2.0808007E-1,-5.4774517E-1,1.3114527E-1,-1.1848826E-2,-5.801615E-2,-2.9506419E-2,5.299131E-2,4.7025975E-2,-2.5481964E-2,-6.0895354E-2,-2.4703654E-2,-4.369589E-2,6.347148E-2,-3.9497595E-3,5.409358E-2],"categories":[],"categories_nodes":[],"categories_segments":[],"categories_sizes":[],"default_left":[0,0,0,0,0,0,0,0,0,0,0,0,0,0,0,0,0,0,0,0,0,0,0,0,0,0,0,0,0],"id":27,"left_children":[1,-1,3,5,7,9,11,-1,-1,13,-1,15,17,19,21,23,25,27,-1,-1,-1,-1,-1,-1,-1,-1,-1,-1,-1],"loss_changes":[3.5457366E0,0E0,3.639806E0,2.8247955E0,2.0159276E0,5.946568E0,5.7134714E0,0E0,0E0,4.0301833E0,0E0,1.7144408E0,2.7850242E0,6.5105033E0,8.5386715E0,3.7710667E-1,1.673649E0,5.5367966E0,0E0,0E0,0E0,0E0,0E0,0E0,0E0,0E0,0E0,0E0,0E0],"parents":[2147483647,0,0,2,2,3,3,4,4,5,5,6,6,9,9,11,11,12,12,13,13,14,14,15,15,16,16,17,17],"right_children":[2,-1,4,6,8,10,12,-1,-1,14,-1,16,18,20,22,24,26,28,-1,-1,-1,-1,-1,-1,-1,-1,-1,-1,-1],"split_conditions":[-1.6271166E0,8.9454524E-2,1.7026764E0,-8.740545E-1,-1.3131025E0,-8.8781804E-1,-7.079089E-1,-3.800243E-2,6.9819935E-2,-6.5309964E-2,8.020649E-2,1E0,1.5756227E0,1E0,1.0115521E0,-7.5214887E-1,-3.5589176E-1,1.5072504E0,-5.801615E-2,-2.9506419E-2,5.299131E-2,4.7025975E-2,-2.5481964E-2,-6.0895354E-2,-2.4703654E-2,-4.369589E-2,6.347148E-2,-3.9497595E-3,5.409358E-2],"split_indices":[4,0,4,4,3,4,4,0,0,3,0,12,3,5,3,4,3,3,0,0,0,0,0,0,0,0,0,0,0],"split_type":[0,0,0,0,0,0,0,0,0,0,0,0,0,0,0,0,0,0,0,0,0,0,0,0,0,0,0,0,0],"sum_hessian":[5.5325E2,3.4048944E0,5.498451E2,5.388718E2,1.0973238E1,1.3962589E2,3.9924597E2,1.4139415E0,9.559296E0,1.2940419E2,1.0221694E1,3.154238E1,3.6770358E2,6.103505E1,6.836913E1,2.7661558E1,3.8808205E0,3.5986746E2,7.8361144E0,5.022798E1,1.0807071E1,4.3637554E1,2.4731579E1,2.2131664E1,5.5298944E0,1.8857174E0,1.9951031E0,3.4360962E2,1.6257862E1],"tree_param":{"num_deleted":"0","num_feature":"15","num_nodes":"29","size_leaf_vector":"1"}},{"base_weights":[-1.091639E-3,1.2272191E-2,-5.7252463E-2,-5.7788044E-2,1.0613103E-1,-1.1307051E-1,1.0457135E-1,2.0819022E-1,-4.1643295E-2,-7.713089E-3,-2.626041E-1,2.3301525E-1,-5.50244E-1,1.6508015E-1,8.620448E-2,-1.5759543E-1,3.4295794E-1,-9.553722E-2,4.2716593E-1,-3.27497E-1,5.7201743E-1,-8.145464E-2,4.5911825E-1,-6.0864814E-2,-8.017657E-3,1.3330027E-1,8.196359E-2,-6.062546E-2,-7.538281E-2,5.110687E-1,-5.31133E-2,-2.3294501E-2,1.6174305E-2,1.0735335E-1,-1.1045322E-2,-6.9104165E-2,-1.8208997E-2,8.8009685E-2,-3.975192E-2,6.671002E-2,-3.2447197E-2,6.4775616E-2,-2.0466758E-2,2.4035355E-2,-1.789638E-2,-6.611788E-2,2.1639073E-3,-3.82344E-2,6.0108643E-2],"categories":[],"categories_nodes":[],"categories_segments":[],"categories_sizes":[],"default_left":[0,0,0,0,0,0,0,0,0,0,0,0,0,0,0,0,0,0,0,0,0,0,0,0,0,0,0,0,0,0,0,0,0,0,0,0,0,0,0,0,0,0,0,0,0,0,0,0,0],"id":28,"left_children":[1,3,-1,5,7,9,11,13,15,17,19,21,23,25,-1,27,29,31,33,35,37,39,41,-1,-1,43,-1,-1,45,47,-1,-1,-1,-1,-1,-1,-1,-1,-1,-1,-1,-1,-1,-1,-1,-1,-1,-1,-1],"loss_changes":[4.340601E0,3.6589103E0,0E0,2.872509E0,3.5946999E0,3.75134E0,6.9808984E0,3.826734E0,4.4228644E0,5.41822E0,5.5192213E0,4.9304867E0,3.261776E-1,2.6643317E0,0E0,2.7560194E0,3.6523945E0,4.2077274E0,8.402697E0,4.736356E0,2.579944E0,5.607089E0,5.164233E0,0E0,0E0,4.3337836E0,0E0,0E0,3.7276998E0,1.8227353E0,0E0,0E0,0E0,0E0,0E0,0E0,0E0,0E0,0E0,0E0,0E0,0E0,0E0,0E0,0E0,0E0,0E0,0E0,0E0],"parents":[2147483647,0,0,1,1,3,3,4,4,5,5,6,6,7,7,8,8,9,9,10,10,11,11,12,12,13,13,15,15,16,16,17,17,18,18,19,19,20,20,21,21,22,22,25,25,28,28,29,29],"right_children":[2,4,-1,6,8,10,12,14,16,18,20,22,24,26,-1,28,30,32,34,36,38,40,42,-1,-1,44,-1,-1,46,48,-1,-1,-1,-1,-1,-1,-1,-1,-1,-1,-1,-1,-1,-1,-1,-1,-1,-1,-1],"split_conditions":[1.6427066E0,8.1922346E-1,-5.7252463E-2,7.893424E-1,3.2783014E-1,-2.8751957E-1,4.250975E-1,2.7655098E-1,1E0,-3.9007786E-1,1.5768383E0,-4.8179364E-1,1.5414366E0,1.3782501E0,8.620448E-2,-8.4947675E-1,6.3993466E-1,6.920395E-1,1.2576821E-1,8.852747E-2,2.9364404E-1,-1.3862547E0,1E0,-6.0864814E-2,-8.017657E-3,3.9219096E-1,8.196359E-2,-6.062546E-2,4.987606E-1,-1.5809104E0,-5.31133E-2,-2.3294501E-2,1.6174305E-2,1.0735335E-1,-1.1045322E-2,-6.9104165E-2,-1.8208997E-2,8.8009685E-2,-3.975192E-2,6.671002E-2,-3.2447197E-2,6.4775616E-2,-2.0466758E-2,2.4035355E-2,-1.789638E-2,-6.611788E-2,2.1639073E-3,-3.82344E-2,6.0108643E-2],"split_indices":[4,2,0,3,3,3,1,3,5,3,4,4,3,4,0,4,4,4,4,3,3,4,7,0,0,4,0,0,3,4,0,0,0,0,0,0,0,0,0,0,0,0,0,0,0,0,0,0,0],"split_type":[0,0,0,0,0,0,0,0,0,0,0,0,0,0,0,0,0,0,0,0,0,0,0,0,0,0,0,0,0,0,0,0,0,0,0,0,0,0,0,0,0,0,0,0,0,0,0,0,0],"sum_hessian":[5.6647925E2,5.544902E2,1.1989074E1,3.17717E2,2.367732E2,2.3724126E2,8.047574E1,1.3980745E2,9.696576E1,1.3979616E2,9.744511E1,6.781733E1,1.2658413E1,1.323348E2,7.4726524E0,7.495735E1,2.2008402E1,1.1695693E2,2.2839224E1,9.097898E1,6.4661245E0,2.8633232E1,3.9184097E1,1.0997235E1,1.6611773E0,1.2735512E2,4.979671E0,1.0621017E1,6.4336334E1,1.8806692E1,3.2017093E0,7.630088E1,4.065605E1,9.918092E0,1.2921131E1,2.4920538E1,6.605844E1,4.9769135E0,1.4892111E0,6.5898266E0,2.2043406E1,3.053162E1,8.652475E0,9.501238E1,3.234274E1,8.315358E0,5.6020977E1,1.4242083E0,1.7382484E1],"tree_param":{"num_deleted":"0","num_feature":"15","num_nodes":"49","size_leaf_vector":"1"}},{"base_weights":[2.0308685E-4,2.4300995E-1,-1.8584548E-2,5.472312E-2,7.967265E-1,-4.2593765E-1,-8.36606E-3,-3.7420094E-1,4.0694407E-1,9.179625E-2,7.679321E-4,-6.3848734E-2,3.2675233E-2,2.1482646E-1,-2.8697256E-2,-6.335532E-2,8.366074E-2,7.5290984E-1,-1.3446145E-1,6.880325E-2,8.63127E-2,-3.7808716E-1,-1.2065184E-3,9.354328E-2,-3.70759E-2,-5.4276526E-2,6.526474E-2,-1.2607081E-1,4.761522E-1,-1.8575141E-2,-6.193119E-2,4.7357097E-1,-2.3181958E-2,-6.1802816E-2,1.9561268E-2,7.4849896E-2,-4.8833787E-2,-3.4370165E-2,7.6185994E-2,7.498203E-2,-5.161337E-2,-5.301642E-2,1.9908624E-5],"categories":[],"categories_nodes":[],"categories_segments":[],"categories_sizes":[],"default_left":[0,0,0,0,0,0,0,0,0,0,0,0,0,0,0,0,0,0,0,0,0,0,0,0,0,0,0,0,0,0,0,0,0,0,0,0,0,0,0,0,0,0,0],"id":29,"left_children":[1,3,5,7,9,11,13,15,17,-1,-1,-1,-1,19,21,-1,-1,23,25,27,-1,29,31,-1,-1,-1,-1,33,35,37,-1,39,41,-1,-1,-1,-1,-1,-1,-1,-1,-1,-1],"loss_changes":[2.4594975E0,3.9934459E0,2.0795457E0,4.6799903E0,9.2584515E-1,2.164657E0,2.2261164E0,4.9372053E0,3.2733564E0,0E0,0E0,0E0,0E0,3.8182938E0,4.314632E0,0E0,0E0,2.4970732E0,2.7488883E0,2.8001173E0,0E0,2.830131E0,4.366819E0,0E0,0E0,0E0,0E0,3.9409769E0,3.3545125E0,3.8620036E0,0E0,5.4492655E0,4.741291E0,0E0,0E0,0E0,0E0,0E0,0E0,0E0,0E0,0E0,0E0],"parents":[2147483647,0,0,1,1,2,2,3,3,4,4,5,5,6,6,7,7,8,8,13,13,14,14,17,17,18,18,19,19,21,21,22,22,27,27,28,28,29,29,31,31,32,32],"right_children":[2,4,6,8,10,12,14,16,18,-1,-1,-1,-1,20,22,-1,-1,24,26,28,-1,30,32,-1,-1,-1,-1,34,36,38,-1,40,42,-1,-1,-1,-1,-1,-1,-1,-1,-1,-1],"split_conditions":[-1.535312E0,-1.5865912E0,-1.4840329E0,-1.0008756E0,1.070317E0,1E0,-1.1763581E0,1E0,1E0,9.179625E-2,7.679321E-4,-6.3848734E-2,3.2675233E-2,1E0,-9.370554E-1,-6.335532E-2,8.366074E-2,1E0,-1.6549634E0,1E0,8.63127E-2,-5.1325315E-1,-8.00311E-1,9.354328E-2,-3.70759E-2,-5.4276526E-2,6.526474E-2,-1.3643816E0,5.239277E-1,1E0,-6.193119E-2,1E0,-6.293805E-1,-6.1802816E-2,1.9561268E-2,7.4849896E-2,-4.8833787E-2,-3.4370165E-2,7.6185994E-2,7.498203E-2,-5.161337E-2,-5.301642E-2,1.9908624E-5],"split_indices":[3,3,3,4,1,5,3,8,13,0,0,0,0,9,3,0,0,6,3,5,0,4,3,0,0,0,0,3,4,6,0,5,3,0,0,0,0,0,0,0,0,0,0],"split_type":[0,0,0,0,0,0,0,0,0,0,0,0,0,0,0,0,0,0,0,0,0,0,0,0,0,0,0,0,0,0,0,0,0,0,0,0,0,0,0,0,0,0,0],"sum_hessian":[5.3716455E2,3.772185E1,4.994427E2,2.8969753E1,8.7521E0,1.122641E1,4.8821628E2,1.3034422E1,1.5935331E1,7.444832E0,1.3072686E0,8.872624E0,2.3537855E0,3.9961304E1,4.4825497E2,1.1127657E1,1.9067652E0,9.48416E0,6.4511704E0,3.3517864E1,6.443437E0,3.1766726E1,4.1648825E2,8.302985E0,1.1811754E0,4.452117E0,1.9990535E0,2.3138845E1,1.037902E1,1.3188337E1,1.8578388E1,1.7515583E1,3.989727E2,8.784023E0,1.4354823E1,8.268231E0,2.1107883E0,9.704908E0,3.4834285E0,1.3882921E1,3.6326628E0,1.6633156E1,3.823395E2],"tree_param":{"num_deleted":"0","num_feature":"15","num_nodes":"43","size_leaf_vector":"1"}},{"base_weights":[9.788165E-4,8.5353225E-2,-5.9339115E-3,-1.730422E-2,5.20578E-1,9.870478E-2,-5.8014058E-2,-3.6485415E-2,6.723825E-2,4.0016465E-2,7.765856E-2,-4.5303E-1,-2.396305E-2,1.7005967E-1,-1.7427157E-1,-5.3763175E-1,1.3156745E-1,9.8293096E-2,-3.1479165E-2,2.8863346E-2,-2.761725E-2,6.561884E-2,-2.3211459E-2,-5.9779096E-2,-2.2350837E-2,-4.212581E-2,6.072997E-2,-1.1937096E-2,6.264305E-3],"categories":[],"categories_nodes":[],"categories_segments":[],"categories_sizes":[],"default_left":[0,0,0,0,0,0,0,0,0,0,0,0,0,0,0,0,0,0,0,0,0,0,0,0,0,0,0,0,0],"id":30,"left_children":[1,-1,3,5,7,9,11,-1,-1,13,-1,15,17,19,21,23,25,-1,27,-1,-1,-1,-1,-1,-1,-1,-1,-1,-1],"loss_changes":[3.2490458E0,0E0,3.2836945E0,2.5390203E0,1.8038714E0,5.5270696E0,5.3384566E0,0E0,0E0,3.6420467E0,0E0,1.628943E0,2.8098276E0,4.3750634E0,2.5277915E0,3.902111E-1,1.5146443E0,0E0,3.03061E0,0E0,0E0,0E0,0E0,0E0,0E0,0E0,0E0,0E0,0E0],"parents":[2147483647,0,0,2,2,3,3,4,4,5,5,6,6,9,9,11,11,12,12,13,13,14,14,15,15,16,16,18,18],"right_children":[2,-1,4,6,8,10,12,-1,-1,14,-1,16,18,20,22,24,26,-1,28,-1,-1,-1,-1,-1,-1,-1,-1,-1,-1],"split_conditions":[-1.6271166E0,8.5353225E-2,1.7026764E0,-8.740545E-1,-1.3131025E0,-8.8781804E-1,-7.079089E-1,-3.6485415E-2,6.723825E-2,8.837744E-1,7.765856E-2,1E0,-7.049596E-1,1E0,-1.7404287E0,9.1007453E-1,-3.5589176E-1,9.8293096E-2,5.239277E-1,2.8863346E-2,-2.761725E-2,6.561884E-2,-2.3211459E-2,-5.9779096E-2,-2.2350837E-2,-4.212581E-2,6.072997E-2,-1.1937096E-2,6.264305E-3],"split_indices":[4,0,4,4,3,4,4,0,0,2,0,12,4,7,3,0,3,0,4,0,0,0,0,0,0,0,0,0,0],"split_type":[0,0,0,0,0,0,0,0,0,0,0,0,0,0,0,0,0,0,0,0,0,0,0,0,0,0,0,0,0],"sum_hessian":[5.494365E2,3.4340918E0,5.4600244E2,5.3540717E2,1.059527E1,1.387092E2,3.9669797E2,1.345266E0,9.250004E0,1.2863177E2,1.0077414E1,3.0505695E1,3.6619226E2,8.018001E1,4.8451775E1,2.6719275E1,3.7864218E0,1.7516863E0,3.6444058E2,6.362627E1,1.6553736E1,2.4814181E0,4.597036E1,2.1666735E1,5.0525393E0,1.8042712E0,1.9821507E0,1.8831906E2,1.7612152E2],"tree_param":{"num_deleted":"0","num_feature":"15","num_nodes":"29","size_leaf_vector":"1"}},{"base_weights":[-1.1510691E-3,1.1324005E-2,-5.614264E-2,-5.543046E-2,1.0042686E-1,-1.0890222E-1,1.0153145E-1,1.8201171E-1,-6.994249E-2,-4.3083352E-1,-6.2196705E-2,2.2315419E-1,-5.3757334E-1,5.169297E-3,2.595854E-1,-6.399395E-2,1.20216105E-2,9.375724E-2,-6.455171E-2,6.696488E-1,-9.678893E-2,-7.652327E-2,4.3607426E-1,-5.970412E-2,-7.2163083E-3,1.9558856E-1,-6.4792566E-2,8.139404E-2,2.0389561E-1,9.48906E-2,-3.5045464E-2,6.239878E-2,-5.4084547E-2,1.0172712E-1,-4.4974502E-2,-5.360603E-2,-4.463331E-3,6.3233845E-2,-3.117588E-2,9.199497E-2,1.9248469E-2,-9.55074E-3,4.3209314E-2,-1.8751983E-3,3.338544E-2,4.558051E-3,-6.649429E-2],"categories":[],"categories_nodes":[],"categories_segments":[],"categories_sizes":[],"default_left":[0,0,0,0,0,0,0,0,0,0,0,0,0,0,0,0,0,0,0,0,0,0,0,0,0,0,0,0,0,0,0,0,0,0,0,0,0,0,0,0,0,0,0,0,0,0,0],"id":31,"left_children":[1,3,-1,5,7,9,11,13,15,17,19,21,23,25,27,-1,29,31,-1,33,35,37,39,-1,-1,41,-1,-1,43,-1,45,-1,-1,-1,-1,-1,-1,-1,-1,-1,-1,-1,-1,-1,-1,-1,-1],"loss_changes":[3.9462473E0,3.291198E0,0E0,2.6669793E0,3.3061981E0,3.5294662E0,6.4103694E0,2.2004437E0,3.626009E0,3.4163475E0,5.323477E0,4.4166193E0,3.2312727E-1,6.3396044E0,3.277543E0,0E0,3.062363E0,3.5429459E0,0E0,4.1547775E0,4.5402546E0,5.0970554E0,4.5741625E0,0E0,0E0,2.7571137E0,0E0,0E0,2.977695E0,0E0,3.4010494E0,0E0,0E0,0E0,0E0,0E0,0E0,0E0,0E0,0E0,0E0,0E0,0E0,0E0,0E0,0E0,0E0],"parents":[2147483647,0,0,1,1,3,3,4,4,5,5,6,6,7,7,8,8,9,9,10,10,11,11,12,12,13,13,14,14,16,16,17,17,19,19,20,20,21,21,22,22,25,25,28,28,30,30],"right_children":[2,4,-1,6,8,10,12,14,16,18,20,22,24,26,28,-1,30,32,-1,34,36,38,40,-1,-1,42,-1,-1,44,-1,46,-1,-1,-1,-1,-1,-1,-1,-1,-1,-1,-1,-1,-1,-1,-1,-1],"split_conditions":[1.6427066E0,8.1922346E-1,-5.614264E-2,7.893424E-1,6.52598E-1,-1.1552238E0,4.250975E-1,-1.1079859E0,7.380633E-1,-1.1250789E0,-1.0008756E0,-4.8179364E-1,1.5414366E0,-1.3643816E0,-1.0054276E0,-6.399395E-2,8.235285E-1,-1.3439809E0,-6.455171E-2,-3.3879873E-1,-1.3131025E0,-1.3862547E0,-6.9516115E-3,-5.970412E-2,-7.2163083E-3,-1.0490481E0,-6.4792566E-2,8.139404E-2,-3.2941163E-1,9.48906E-2,1.2219356E0,6.239878E-2,-5.4084547E-2,1.0172712E-1,-4.4974502E-2,-5.360603E-2,-4.463331E-3,6.3233845E-2,-3.117588E-2,9.199497E-2,1.9248469E-2,-9.55074E-3,4.3209314E-2,-1.8751983E-3,3.338544E-2,4.558051E-3,-6.649429E-2],"split_indices":[4,2,0,3,3,4,1,3,3,3,4,4,3,3,3,0,3,4,0,3,3,4,4,0,0,4,0,0,4,0,4,0,0,0,0,0,0,0,0,0,0,0,0,0,0,0,0],"split_type":[0,0,0,0,0,0,0,0,0,0,0,0,0,0,0,0,0,0,0,0,0,0,0,0,0,0,0,0,0,0,0,0,0,0,0,0,0,0,0,0,0,0,0,0,0,0,0],"sum_hessian":[5.626889E2,5.513914E2,1.1297478E1,3.154438E2,2.3594765E2,2.3551704E2,7.992673E1,1.5949963E2,7.6448006E1,2.8797497E1,2.0671954E2,6.7695076E1,1.2231655E1,4.895806E1,1.1054157E2,8.755149E0,6.7692856E1,8.526302E0,2.0271194E1,8.501451E0,1.982181E2,2.8384914E1,3.931016E1,1.0595045E1,1.6366103E0,3.84484E1,1.0509665E1,8.848182E0,1.0169339E2,2.321523E0,6.537133E1,4.6542535E0,3.8720489E0,6.5565696E0,1.9448808E0,2.0052387E1,1.7816571E2,6.6518974E0,2.1733017E1,1.2233144E1,2.7077017E1,1.7502293E1,2.0946104E1,3.779613E1,6.3897263E1,5.8775757E1,6.595575E0],"tree_param":{"num_deleted":"0","num_feature":"15","num_nodes":"47","size_leaf_vector":"1"}},{"base_weights":[2.0580448E-4,2.3425598E-1,-1.7775634E-2,5.1748626E-2,7.630417E-1,-4.1430172E-1,-7.973722E-3,-3.6228204E-1,3.87871E-1,8.770253E-2,1.3205274E-3,-6.258438E-2,3.1082341E-2,2.914294E-2,-1.21403255E-1,-6.21663E-2,8.0325514E-2,7.161378E-1,-1.3436182E-1,-4.7459565E-2,3.3346787E-1,-2.7669278E-1,1.6619585E-1,8.889855E-2,-3.6209606E-2,-5.324244E-2,6.1938036E-2,5.6172356E-2,-2.0054734E-1,1.193636E-1,8.912801E-1,2.7980977E-1,-3.4585702E-1,-6.6066394E-3,1.04797445E-1,-2.698894E-3,7.7939026E-2,-2.6658116E-2,1.8700793E-2,6.0462076E-2,-6.8020574E-3,1.0361179E-1,2.967678E-2,-1.624651E-2,8.578219E-2,-4.4079825E-2,1.0078282E-2,-4.026635E-2,2.273918E-2],"categories":[],"categories_nodes":[],"categories_segments":[],"categories_sizes":[],"default_left":[0,0,0,0,0,0,0,0,0,0,0,0,0,0,0,0,0,0,0,0,0,0,0,0,0,0,0,0,0,0,0,0,0,0,0,0,0,0,0,0,0,0,0,0,0,0,0,0,0],"id":32,"left_children":[1,3,5,7,9,11,13,15,17,-1,-1,-1,-1,19,21,-1,-1,23,25,27,29,31,33,-1,-1,-1,-1,35,37,39,41,43,45,47,-1,-1,-1,-1,-1,-1,-1,-1,-1,-1,-1,-1,-1,-1,-1],"loss_changes":[2.2549653E0,3.6497402E0,1.9306777E0,4.244715E0,8.2053137E-1,2.03277E0,2.052202E0,4.650606E0,2.9694486E0,0E0,0E0,0E0,0E0,8.581603E0,5.412652E0,0E0,0E0,2.2693257E0,2.523322E0,4.6822534E0,8.733201E0,3.1146436E0,6.522076E0,0E0,0E0,0E0,0E0,1.0627594E1,3.0971022E0,5.00953E0,1.4469299E0,2.496422E0,3.0206394E0,3.4969914E0,0E0,0E0,0E0,0E0,0E0,0E0,0E0,0E0,0E0,0E0,0E0,0E0,0E0,0E0,0E0],"parents":[2147483647,0,0,1,1,2,2,3,3,4,4,5,5,6,6,7,7,8,8,13,13,14,14,17,17,18,18,19,19,20,20,21,21,22,22,27,27,28,28,29,29,30,30,31,31,32,32,33,33],"right_children":[2,4,6,8,10,12,14,16,18,-1,-1,-1,-1,20,22,-1,-1,24,26,28,30,32,34,-1,-1,-1,-1,36,38,40,42,44,46,48,-1,-1,-1,-1,-1,-1,-1,-1,-1,-1,-1,-1,-1,-1,-1],"split_conditions":[-1.535312E0,-1.5865912E0,-1.4840329E0,-1.0008756E0,1.070317E0,1E0,8.6899924E-1,1E0,1E0,8.770253E-2,1.3205274E-3,-6.258438E-2,3.1082341E-2,3.4598482E-1,1.4165914E0,-6.21663E-2,8.0325514E-2,1E0,-1.6549634E0,-4.8179364E-1,1E0,-1.2046779E0,1E0,8.889855E-2,-3.6209606E-2,-5.324244E-2,6.1938036E-2,